tree
version=v4
num_class=1
num_tree_per_iteration=1
label_index=0
max_feature_idx=31
objective=binary sigmoid:1
feature_names=Column_0 Column_1 Column_2 Column_3 Column_4 Column_5 Column_6 Column_7 Column_8 Column_9 Column_10 Column_11 Column_12 Column_13 Column_14 Column_15 Column_16 Column_17 Column_18 Column_19 Column_20 Column_21 Column_22 Column_23 Column_24 Column_25 Column_26 Column_27 Column_28 Column_29 Column_30 Column_31
feature_infos=[-1.2854720852642334:1.2836587188041666] [-1.2889427220545928:1.2821353529644759] [-3.6064857641019348:4.752632410659654] [-3.5997941777094433:4.7518116751072164] [-3.4946872206963304:4.7468374426587445] [-3.4835530132210026:4.7381441440459726] [-5.1190935758730465:4.5350581996178949] [-5.1113393413460848:4.5292914134547981] [-1.4342129166544748:1.4370006386368275] [-4.1021893523683932:4.0967825649628171] [-4.0032898980759857:5.1277904426069396] [-3.7313367328032574:5.0339011420714774] [-2.7263860849175621:5.130229813645931] [-3.5107349186795593:5.1668882983281961] [-3.2375847574867316:5.8469443271478259] [-3.3624321812339542:4.9958307945022504] [-3.166448456361556:4.5322519821336869] [-3.7938026706377568:5.8862938117658121] [-4.7345324147783394:4.3153077075962853] [-4.0385105967382282:5.7890707672392319] [-6.2416388719111584:3.8770446906283751] [-4.0187298770822499:4.7139252254497643] [-4.5651908651659907:4.384664362502515] [-3.181590479055759:5.1190710469254253] [-3.472563072601679:5.1134323685970804] [-3.007199040808648:5.9054510414774999] [-2.9953188913402355:5.0291407605519156] [-3.1550855232728732:4.5016963650080397] [-3.8358600501683879:5.9334559018981849] [-4.8100904042511621:3.63443770997194] [-4.8261743437531699:5.7875165935559147] [-6.286598128975089:3.9045045744937701]
tree_sizes=3227 3396 3398 3400 3417 3427 3418 3401 3417 3419 3385 3403 3424 3434 3402 3422 3400 3388 3365 3410 3382 3396 3366 3376 3395 3385 3413 3426 3382 3394 3428 3413 3426 3433 3399 3421 3397 3439 3421 3418 3413 3378 3414 3358 3436 3392 3422 3424 3421 3385 3421 3427 3424 3414 3391 3419 3444 3431 3426 3430 3416 3433 3422 3410 3421 3418 3438 3390 3422 3425 3443 3406 3430 3448 3448 3423 3434 3430 3437 3405 3409 3429 3449 3377 3394 3420 3413 3413 3425 3452 3446 3433 3438 3438 3423 3446 3414 3418 3407 3406 3410 3380 3381 3380 3389 3411 3435 3432 3426 3403 3435 3383 3435 3407 3371 3431 3415 3425 3440 3417 3402 3412 3405 3432 3414 3400 3442 3418 3448 3421 3419 3404 3342 3377 3399 3409 3427 3437 3373 3397 3422 3420 3410 3393 3418 3428 3430 3443 3360 3416 3392 3472 3426 3452 3413 3395 3435 3464 3406 3447 3423 3383 3432 3401 3418 3453 3417 3437 3416 3406 3420 3460 3432 3457 3410 3451 3352 3440 3361 3413 3395 3406 3410 3466 3458 3432 3400 3433 3467 3419 3432 3481 3444 3421 3419 3455 3432 3404 3443 3403

Tree=0
num_leaves=31
num_cat=0
split_feature=8 8 8 8 8 11 9 1 31 21 21 4 10 27 0 6 24 18 13 27 4 13 10 5 9 9 18 15 24 6
split_gain=4538.02 274.541 72.9053 14.9815 11.4379 10.7672 10.6763 9.74241 9.34181 9.24694 6.62284 6.60399 6.57726 7.86705 5.83539 8.89679 5.607 4.89279 5.21653 4.44801 4.13431 3.94368 4.54922 3.86361 3.8784 4.56276 4.2151 4.98037 4.31005 3.85713
threshold=0.049247420246031244 -0.26521882628587307 0.45600267391229909 1.0000000180025095e-35 -0.45321495192994654 -0.83092936858908895 -0.19848012698521597 0.53223758108391428 1.2947641065098325 -0.94379920326695177 0.38195739462350203 0.7140182095231058 -0.40240418308086456 0.452882911962527 -0.53614226741094995 -0.21637974686660597 0.11387877314905293 -0.42831218298302903 0.65693467637777636 -0.6173263746949188 -0.0062776452010164839 0.74853181033508087 0.19932138775676597 -0.9217924965359876 -0.45404103049818439 -0.23527038558862542 -0.018285239783363418 0.76129415433286685 -0.38875970997112524 -0.13111515853605968
decision_type=2 2 2 2 2 2 2 2 2 2 2 2 2 2 2 2 2 2 2 2 2 2 2 2 2 2 2 2 2 2
left_child=1 4 7 5 -1 -3 12 8 14 -8 17 19 13 -5 -2 16 -16 -7 -19 -11 -14 22 -12 -17 -25 -26 -27 28 -28 -6
right_child=2 3 -4 6 29 10 9 -9 -10 11 21 -13 20 -15 15 23 -18 18 -20 -21 -22 -23 -24 24 25 26 27 -29 -30 -31
leaf_value=-0.098816421122330744 0.097540983606557385 -0.080184331797235026 0.098652001323188895 0.032236842105263154 -0.055579868708971553 0.022674418604651154 0.02887700534759359 0.09847715736040609 -0.016964285714285716 -0.068263473053892229 -0.058267716535433056 0.01889763779527559 0.081147540983606561 -0.048039215686274506 0.046153846153846163 0.097058823529411919 -0.017901234567901235 -0.040466926070038906 0.016964285714285716 -0.024029126213592229 0.021969696969696972 -0.081147540983606575 0.0037383177570093455 0.08435374149659873 0.0031496062992126027 0.024380165289256215 0.034645669291338603 0.016964285714285716 0.086217948717948509 -0.089589905362776029
leaf_weight=604 5.9999999999999991 10.749999999999998 604.5 7.5000000000000018 22.75 8.5000000000000018 9.2499999999999982 9.7499999999999982 5.4999999999999991 8.2499999999999982 6.2500000000000018 6.2499999999999991 6 5 5.7499999999999991 4.999999999999992 7.9999999999999991 12.750000000000002 5.4999999999999991 20.500000000000004 6.4999999999999982 5.9999999999999991 5.25 7.249999999999992 6.249999999999992 11.999999999999991 6.2499999999999956 5.4999999999999991 15.500000000000037 15.749999999999998
leaf_count=2416 24 43 2418 30 91 34 37 39 22 33 25 25 24 20 23 20 32 51 22 82 26 24 21 29 25 48 25 22 62 63
internal_value=0 -0.0839408 0.0923066 -0.0158424 -0.0970977 -0.0352995 -0.000288392 0.0508347 0.0450662 -0.0151071 -0.0241263 -0.0269231 0.0256972 0 0.049549 0.0453212 0.00866426 -0.00819367 -0.0228883 -0.0370884 0.0511905 -0.0480114 -0.0297414 0.0539326 0.0495743 0.04375 0.0500635 0.0610603 0.0718535 -0.0698187
internal_weight=1464 766.75 697.25 124.25 642.5 55 69.25 92.75 83 44.25 44.25 35 25 12.5 77.5 71.5 13.75 26.75 18.25 28.75 12.5 17.5 11.5 57.75 52.75 45.5 39.25 27.25 21.75 38.5
internal_count=5856 3067 2789 497 2570 220 277 371 332 177 177 140 100 50 310 286 55 107 73 115 50 70 46 231 211 182 157 109 87 154
is_linear=0
shrinkage=0.05


Tree=1
num_leaves=31
num_cat=0
split_feature=8 8 8 8 8 11 9 1 31 3 5 13 21 3 4 10 27 4 17 14 14 27 18 15 19 15 17 27 28 4
split_gain=4105.31 248.919 66.0771 13.5572 10.3851 9.74844 9.65396 8.8307 8.46929 8.44687 8.87666 8.71089 8.35927 6.43568 5.977 5.95906 7.11599 5.39531 6.86994 4.66475 4.4182 4.45919 4.43971 5.56233 5.18416 4.3693 4.49201 4.25528 3.999 3.74214
threshold=0.049247420246031244 -0.26521882628587307 0.45600267391229909 1.0000000180025095e-35 -0.45321495192994654 -0.83092936858908895 -0.19848012698521597 0.53223758108391428 1.2947641065098325 -0.20800244330749634 -0.53076055856841176 -0.11651875411037997 -0.94379920326695177 -1.042324513945305 0.7140182095231058 -0.40240418308086456 0.452882911962527 0.25336388382744585 0.11036322666642354 -1.0800090998860241 0.97873024591426094 -1.0000000180025095e-35 0.64079301667807786 -0.34548972139987888 0.12590982516092022 -0.012794973533611247 1.0000000180025095e-35 -0.39980416195966556 0.17548028772561422 -0.0062776452010164839
decision_type=2 2 2 2 2 2 2 2 2 2 2 2 2 2 2 2 2 2 2 2 2 2 2 2 2 2 2 2 2 2
left_child=1 4 7 5 -1 -3 15 8 13 10 -7 -11 -8 -2 25 16 -5 -13 -19 -15 21 28 23 -23 -25 26 -14 -27 -21 -17
right_child=2 3 -4 6 -6 9 12 -9 -10 11 -12 17 14 19 -16 29 -18 18 -20 20 -22 22 -24 24 -26 27 -28 -29 -30 -31
leaf_value=-0.094109759873690621 0.088743074855140977 -0.076335634260969121 0.093952400348658399 0.03065420493239019 -0.066439193821797055 -0.021277096865581255 0.027454356094861351 0.093832043573170681 -0.016132377511562095 0.001095218241022452 0.059746154750996587 -0.089477201653704666 -0.048588392707752892 0.0038280324908550097 0.01796924370521814 0.077283869297977079 -0.045710650451847856 -0.068129234530882529 0.0045824117354678973 0.085494253205537329 0.010785797897013184 -0.019612469558039899 0.072909528117020381 0.066776204709863229 0.0098406119741618597 -0.086435234368567926 0.010529224734230434 -0.031302580463016948 0.043428553516515922 0.020890379980107319
leaf_weight=602.52794671058655 8.4851416498422605 10.732738837599753 603.03159230947495 7.4980518221855181 38.450878173112869 8.9978215992450696 9.2480719536542875 9.7263996899127942 5.4996043145656577 9.4956611692905408 5.2489075213670722 7.743677005171782 5.2474575936794263 7.4940413385629574 6.2494419515132895 5.9901334047317505 4.9971163272857666 6.9957034140825254 5.7463357597589493 13.983429074287409 7.9973836988210669 4.9979811608791342 6.7419393360614768 8.4910188764333956 7.9943190217018119 5.9940352439880344 7.7473516166210175 9.7485924661159551 11.239317834377287 6.4992158412933332
leaf_count=2416 34 43 2418 30 154 36 37 39 22 38 21 31 21 30 25 24 20 28 23 56 32 20 27 34 32 24 31 39 45 26
internal_value=0 -0.0799159 0.0879001 -0.015062 -0.0924683 -0.0335788 -0.000260167 0.048395 0.0428988 -0.0229415 0.00843408 -0.0379954 -0.0143562 0.0471717 -0.0255973 0.0244553 0 -0.0562752 -0.0351684 0.0418615 0.0464052 0.0516114 0.0373231 0.0256376 0.0396934 -0.0352744 -0.0131501 -0.0530231 0.0671926 0.048734
internal_weight=1460.84 765.159 695.682 124.18 640.979 54.9608 69.2195 92.6506 82.9242 44.2281 14.2467 29.9814 44.235 77.4246 34.9869 24.9845 12.4952 20.4857 12.742 68.9394 61.4454 53.448 28.2253 21.4833 16.4853 28.7374 12.9948 15.7426 25.2227 12.4893
internal_count=5856 3067 2789 497 2570 220 277 371 332 177 57 120 177 310 140 100 50 82 51 276 246 214 113 86 66 115 52 63 101 50
is_linear=0
shrinkage=0.05


Tree=2
num_leaves=31
num_cat=0
split_feature=8 8 8 8 20 8 11 3 5 13 30 31 31 31 9 9 7 14 14 17 28 4 17 14 30 6 6 11 8 2
split_gain=3729.1 227.609 60.7102 12.2807 9.65147 9.61915 8.87431 7.64779 8.03349 7.9104 7.01763 6.63662 6.35361 6.13464 7.75848 5.96484 5.96474 5.53807 6.06966 5.31829 5.53456 4.91457 6.23643 4.2108 3.85003 3.55835 7.40291 3.14383 2.12069 1.84167
threshold=0.049247420246031244 -0.26521882628587307 0.45600267391229909 1.0000000180025095e-35 -0.61332109986191552 -0.45321495192994654 -0.83092936858908895 -0.20800244330749634 -0.53076055856841176 -0.11651875411037997 0.51540981299036936 1.2947641065098325 -0.071227341251849527 0.47520651407218523 0.27453748363004588 0.62798675378422775 0.4333966518887537 -0.92018868080449046 0.97873024591426094 -0.35233979783518904 -0.16073643010524899 0.25336388382744585 0.11036322666642354 0.20276005326839217 -0.15687979463183346 -0.13111515853605968 -0.65301695323674502 0.44610341542824017 0.6952704701865744 0.45893275382428406
decision_type=2 2 2 2 2 2 2 2 2 2 2 2 2 2 2 2 2 2 2 2 2 2 2 2 2 2 2 2 2 2
left_child=1 5 11 6 10 -1 -3 8 -8 -9 12 15 -5 14 23 16 17 -2 19 20 -19 -11 -23 24 -6 26 -7 -15 -4 -16
right_child=2 3 28 4 13 25 7 9 -10 21 -12 -13 -14 27 29 -17 -18 18 -20 -21 -22 22 -24 -25 -26 -27 -28 -29 -30 -31
leaf_value=-0.090033984161242919 0 -0.072886742065508645 0.080580800909013692 0.019299850378548592 0.043458758160303916 -0.086737626995365233 -0.020227929118758235 0.0010410117696646017 0.056868073273660648 -0.085412441656897098 -0.014562103014114501 -0.0028523842339750458 0.087955280276154776 -0.0056215190176412211 -0.036235915397306334 0.073584362879180409 0.077579969228459666 0.0594388521094594 -0.0048448598664494486 0.062511185760667984 -0.0033153357418169468 -0.06491998720624105 0.0043569945023395852 -0.033974951279171613 -0.010559454556121478 -0.082349385988585239 -0.026800496684526987 0.041028755062559492 0.091118833584560591 -0.077667524058301601
leaf_weight=598.41437697410583 9.2368855625390989 10.684428215026854 71.584065720438957 8.7398543357849121 5.4917953461408588 8.4684399068355543 8.9965015500783903 9.4958282113075239 5.2439757585525504 7.7120406031608644 6.484725058078765 6.2416022121906272 5.7385493218898782 7.984511122107504 7.2408163547515851 20.634332880377769 10.188275262713431 5.9752875715494156 5.7472164779901496 26.405934318900115 7.9797522723674685 6.9797433167695981 5.7466162443161011 7.9839611798524848 7.7343899905681655 15.654528647661207 14.197090432047846 6.241020068526268 527.3442073315382 5.4896572530269623
leaf_count=2416 37 43 289 35 22 34 36 38 21 31 26 25 23 32 29 83 41 24 23 106 32 28 23 32 31 63 57 25 2129 22
internal_value=2.4715e-07 -0.0763771 0.0840493 -0.0143372 -0.00023883 -0.0884459 -0.0319791 -0.0218296 0.00801216 -0.036172 0.027928 0.0461398 0.0472712 -0.0126338 -0.0242211 0.0497457 0.0420629 0.0353063 0.0423715 0.0492138 0.0234308 -0.0536258 -0.0334579 -0.00536677 0.0116527 -0.0633458 -0.0496969 0.0146394 0.0898813 -0.0549579
internal_weight=1452.06 760.723 691.338 123.988 69.1293 636.734 54.8591 44.1747 14.2405 29.9342 20.9631 92.4093 14.4784 48.1662 33.9406 86.1677 65.5334 55.3451 46.1082 40.361 13.955 20.4384 12.7264 21.2101 13.2262 38.3201 22.6655 14.2255 598.928 12.7305
internal_count=5856 3067 2789 497 277 2570 220 177 57 120 84 371 58 193 136 346 263 222 185 162 56 82 51 85 53 154 91 57 2418 51
is_linear=0
shrinkage=0.05


Tree=3
num_leaves=31
num_cat=0
split_feature=8 8 8 8 8 20 1 3 31 30 31 31 9 29 9 30 27 2 27 19 5 6 6 2 23 29 17 9 9 23
split_gain=3399.23 209.769 56.5343 11.1434 9.01057 8.73696 7.83881 7.41388 6.86487 6.36217 5.77038 5.55236 7.03684 4.89069 5.12976 4.35845 3.90427 5.8678 7.25736 6.50633 4.37608 3.27813 6.77955 2.93437 2.79098 2.66828 2.55586 4.02413 3.48719 2.52157
threshold=0.049247420246031244 -0.26521882628587307 0.45600267391229909 1.0000000180025095e-35 -0.45321495192994654 -0.61332109986191552 0.53223758108391428 -1.042324513945305 1.2947641065098325 0.51540981299036936 -0.071227341251849527 0.47520651407218523 0.23643328721937193 -0.5319194012996884 -0.83376905679765834 -0.15687979463183346 -0.10107365646991788 0.27932921071193678 0.54569238939623477 -1.0000000180025095e-35 0.39752252494008494 -0.13111515853605968 -0.65301695323674502 -0.16967964706893193 0.23749153045553864 0.084726536693760027 0.84579912825163006 0.28767686170269247 -0.07496997310234231 0.42304864657866276
decision_type=2 2 2 2 2 2 2 2 2 2 2 2 2 2 2 2 2 2 2 2 2 2 2 2 2 2 2 2 2 2
left_child=1 4 6 13 -1 9 7 -2 16 10 -5 12 15 -3 -15 -7 25 18 23 -20 -19 22 -6 -18 -13 -9 27 28 -16 -17
right_child=2 3 -4 5 21 11 -8 8 -10 -11 -12 24 -14 14 26 29 17 20 19 -21 -22 -23 -24 -25 -26 -27 -28 -29 -30 -31
leaf_value=-0.086472148188817266 0.082916757913917005 0.0027298918409332869 0.086323490474994422 0.018347237183559 -0.083050546598692043 0.024122976466055164 0.087147183629393749 0.070805603226458194 -0.020672793765095 -0.013845508951400843 0.083877105344196456 -0.012276536841272532 -0.051034973090164894 -0.08071711714435939 -0.036730934887917718 -0.041826274518343337 -0.038416945325355639 0.083262146349693436 0.070981368338291606 0.0043529397327540104 0.027224857990357388 -0.078905344455015139 -0.025516878227342995 0.0098140263001485536 0.032147971648286429 0.037248991078293055 0.002253317425658305 -0.063171897770567559 0.0025896069139931185 0.0027059894453648073
leaf_weight=592.06948852539062 8.6376782357692701 8.9636174738407117 592.59928859770298 8.7391602396965027 8.4080621600151044 7.9782694429159156 9.5861101448535901 12.149258539080614 5.2483042627573004 6.484512284398078 5.7218870222568521 5.7385123074054709 13.457309588789938 5.9383420199155799 17.391953855752941 7.235231816768648 6.2339261323213577 6.7006068229675284 7.202011391520494 7.7257989943027541 8.2137891352176648 15.528356596827505 14.171390309929849 5.9707137346267789 8.4803464263677579 14.402984902262686 4.9754609167575827 9.4456119090318662 7.964689224958426 5.237915113568306
leaf_count=2416 35 36 2418 35 34 32 39 49 21 26 23 23 54 24 70 29 25 27 29 31 33 63 57 24 34 58 20 38 32 21
internal_value=0 -0.0732356 0.0806484 -0.0136592 -0.0849231 -0.000229725 0.0440136 0.0388408 0.0335126 0.0265772 0.0450172 -0.0120309 -0.0230643 -0.0305012 -0.0371177 -0.00425709 0.037755 0.0279071 0.0137197 0.0370894 0.0531207 -0.0605615 -0.0474333 -0.0145272 0.0139092 0.0529988 -0.0302974 -0.0350873 -0.024222 -0.0228551
internal_weight=1438.6 753.93 684.67 123.753 630.177 69.0731 92.0712 82.4851 73.8474 20.9456 14.461 48.1276 33.9087 54.6797 45.7161 20.4514 68.5991 42.0468 27.1325 14.9278 14.9144 38.1078 22.5795 12.2046 14.2189 26.5522 39.7777 34.8023 25.3566 12.4731
internal_count=5856 3067 2789 497 2570 277 371 332 297 84 58 193 136 220 184 82 276 169 109 60 60 154 91 49 57 107 160 140 102 50
is_linear=0
shrinkage=0.05


Tree=4
num_leaves=31
num_cat=0
split_feature=8 8 8 21 8 8 6 14 0 17 28 3 31 31 7 6 24 22 12 6 6 14 14 27 2 19 28 19 0 30
split_gain=3108 194.824 53.0512 10.1768 8.53692 8.46904 7.68687 7.79269 7.28198 7.05416 7.95321 6.83965 6.24185 5.51204 5.00953 4.94359 4.23842 4.22696 3.56446 4.56983 6.29578 3.55575 3.7891 3.84018 3.87566 5.52652 3.66981 3.05772 4.2848 7.56088
threshold=0.049247420246031244 -0.26521882628587307 0.45600267391229909 -0.94379920326695177 -0.45321495192994654 -0.17122076346383652 0.12467860645558078 0.37339538792687221 0.88605514198405733 0.85418016416713105 0.37530720492697567 -1.042324513945305 1.2947641065098325 0.95820443696803215 -0.3081903292497758 -0.10223521732732567 -0.15622233343865832 -0.24915560863454886 -0.74297569876060188 -0.13111515853605968 -0.65301695323674502 -1.0800090998860241 0.97873024591426094 -1.0000000180025095e-35 0.27932921071193678 -0.030450353972907015 0.17548028772561422 0.6810823696749001 -0.092661354803904861 0.1434722451139438
decision_type=2 2 2 2 2 2 2 2 2 2 2 2 2 2 2 2 2 2 2 2 2 2 2 2 2 2 2 2 2 2
left_child=1 4 8 14 -1 13 9 16 11 10 17 -2 21 27 -3 -12 -8 -7 -6 20 -20 -13 23 26 25 -25 -23 28 -5 -30
right_child=2 3 -4 5 18 6 7 -9 -10 -11 15 12 -14 -15 -16 -17 -18 -19 19 -21 -22 22 -24 24 -26 -27 -28 -29 29 -31
leaf_value=-0.083334556987647676 0.079679488573567686 -0.013124682082486431 0.083187191370207095 -0.059977490547625058 -0.086741984919239012 -0.009636957561921327 -0.033638695035141664 -0.068602629248352295 0.083943446529577956 0.058010464065174731 -0.052443902679041303 0.0027473510258423043 -0.019667932801586224 0.0061750254417428608 0.046614259333002242 0.0075652437929751432 0.019197597863309743 0.030444825010610695 -0.075724898775368907 -0.072822463274068036 -0.010019067211897549 0.077072613901739473 0.0070477148078604826 0.044020962571076197 0.057900279992677453 -0.0099282151451281896 0.036699684307000151 -0.080342463895404601 0.018262236152500191 -0.05245623952565235
leaf_weight=583.85134935379028 8.5455236583948118 5.2344765067100516 584.4019326120615 12.152047365903853 8.8315037190914136 11.215480729937552 7.9667505770921707 8.6755692958831769 9.4612803608179075 5.2221632152795783 9.9616943299770337 7.4834647625684658 5.2457942962646475 5.9505786150693885 9.7149801254272443 4.9701084345579138 6.9663741886615771 15.205543085932733 5.3845585286617306 11.946800887584688 11.66117052733898 13.768926039338107 7.9717887490987769 9.6407680064439756 9.3863560408353788 8.9691458940506177 11.135770931839941 5.4371463805437079 6.9488034248352069 7.9062025845050812
leaf_count=2416 35 21 2418 49 36 45 32 35 39 21 40 30 21 24 39 20 28 61 22 49 47 56 32 39 38 36 45 22 28 32
internal_value=3.18399e-07 -0.0704156 0.0776299 -0.0130025 -0.0818117 -0.0183567 -0.00791611 -0.0311162 0.0420717 0.00377828 -0.00307314 0.0370921 0.0319783 -0.0372414 0.0254165 -0.0322195 -0.00869397 0.0132698 -0.0580151 -0.0488246 -0.031387 0.0360377 0.0400371 0.0448913 0.0316063 0.0178385 0.0594394 -0.0453526 -0.0378534 -0.0191406
internal_weight=1421.21 745.203 676.011 123.528 621.675 108.578 70.1837 23.6087 91.6088 46.575 41.3528 82.1475 73.602 38.3948 14.9495 14.9318 14.9331 26.421 37.824 28.9925 17.0457 68.3562 60.8728 52.901 27.9963 18.6099 24.9047 32.4442 27.0071 14.855
internal_count=5856 3067 2789 497 2570 437 282 95 371 187 166 332 297 155 60 60 60 106 154 118 69 276 246 214 113 75 101 131 109 60
is_linear=0
shrinkage=0.05


Tree=5
num_leaves=31
num_cat=0
split_feature=8 8 8 8 8 11 9 21 1 3 5 13 3 31 4 10 27 4 17 22 14 4 7 17 14 12 6 6 23 17
split_gain=2849.41 182.003 50.1796 9.33177 8.15346 8.03042 7.53808 6.98537 6.80939 6.45592 7.29803 6.98764 6.34688 5.6805 5.46721 5.2838 6.04381 4.50381 5.30579 3.84824 3.50398 3.45089 3.41929 6.52974 4.38801 3.30669 4.23889 5.80392 2.39105 2.38062
threshold=0.049247420246031244 -0.26521882628587307 0.45600267391229909 1.0000000180025095e-35 -0.45321495192994654 -0.83092936858908895 -0.19848012698521597 -0.94379920326695177 0.53223758108391428 -0.20800244330749634 -0.53076055856841176 -0.11651875411037997 -1.042324513945305 1.2947641065098325 0.7140182095231058 -0.40240418308086456 0.452882911962527 0.25336388382744585 0.11036322666642354 0.60043209776007112 0.20276005326839217 -0.0062776452010164839 -0.61375163166333635 -0.92644075804700243 -0.89285097754054366 -0.74297569876060188 -0.13111515853605968 -0.65301695323674502 -0.51846157280346217 -1.0000000180025095e-35
decision_type=2 2 2 2 2 2 2 2 2 2 2 2 2 2 2 2 2 2 2 2 2 2 2 2 2 2 2 2 2 2
left_child=1 4 8 5 -1 -3 15 -8 12 10 -7 -11 -2 22 19 16 -5 -13 -19 20 29 -17 28 -24 -25 -6 27 -27 -14 -9
right_child=2 3 -4 6 25 9 7 14 -10 11 -12 17 13 -15 -16 21 -18 18 -20 -21 -22 -23 23 24 -26 26 -28 -29 -30 -31
leaf_value=-0.080551215986615715 0.076782012619747708 -0.067093211241321157 0.080403944183015386 0.027066171211889846 -0.083581448033242869 -0.017738641752542455 0.025667565468779477 -0.045823973243667382 0.081104734288696037 0.0034392209659742366 0.055771756311709511 -0.078774313574314192 0.030247306372447359 -0.01871522884229947 0.018791861342560827 0.072336667342986008 -0.04341606985615399 -0.058124965165568657 0.0059665375958511411 0.0026644215751430397 -0.06466246276936953 0.01805451292635453 -0.018647928719791717 0.00032491959859158972 0.041462501712148971 -0.072909636514668308 -0.070114238296122608 -0.0095310602132606809 0.078847127202744338 -0.0022263650746488493
leaf_weight=574.07302594184875 8.4312331676483137 10.510523989796637 574.6480730175972 7.4669447243213671 8.7138848006725294 8.9795627593994123 9.2225333601236326 6.2184735983610153 9.3100941479206067 9.4755831807851774 5.2356256842613211 7.570522800087935 4.9546170681715012 5.2423684000968924 6.2343090325593939 5.9295942485332489 4.9798806607723236 6.8794054687023145 5.7388300150632858 5.9784152954816809 9.6385834366083127 6.4759175330400449 6.1931774765252987 7.9507589787244717 42.106259614229216 5.3183679282665279 11.795510917901995 11.650726139545439 6.8509311974048597 6.73563195765019
leaf_count=2416 35 43 2418 30 36 36 37 25 39 38 21 31 20 21 25 24 20 28 23 24 39 26 25 32 171 22 49 47 28 27
internal_value=1.39114e-08 -0.0678731 0.0749285 -0.0123882 -0.0790452 -0.0278496 -8.43111e-05 -0.0125762 0.040262 -0.0182046 0.00918731 -0.0314856 0.0354549 0.0305349 -0.0228975 0.0218074 -0.000856012 -0.0480601 -0.028765 -0.0322025 -0.0416203 0.0447711 0.0344239 0.0290192 0.0350418 -0.0556906 -0.0468079 -0.0299986 0.0592958 -0.0237286
internal_weight=1400.51 734.822 665.688 123.27 611.552 54.3901 68.8803 44.0279 91.0394 43.8795 14.2152 29.6643 81.7293 73.2981 34.8054 24.8523 12.4468 20.1888 12.6182 28.5711 22.5927 12.4055 68.0557 56.2502 50.057 37.4785 28.7646 16.9691 11.8055 12.9541
internal_count=5856 3067 2789 497 2570 220 277 177 371 177 57 120 332 297 140 100 50 82 51 115 91 50 276 228 203 154 118 69 48 52
is_linear=0
shrinkage=0.05


Tree=6
num_leaves=31
num_cat=0
split_feature=8 8 8 21 9 8 10 8 29 0 3 22 16 20 31 7 24 9 13 30 7 18 12 0 2 7 0 12 18 7
split_gain=2618.62 170.648 47.884 8.57511 7.95051 8.41686 9.30357 7.84617 6.56145 6.41278 5.92768 5.57172 5.45319 5.27943 5.1671 5.06432 4.67532 4.87945 3.74863 3.24387 6.98895 5.20646 3.09319 3.63827 3.08844 3.0069 2.93859 4.19108 2.6659 2.65788
threshold=0.049247420246031244 -0.26521882628587307 0.45600267391229909 -0.94379920326695177 0.50644750661225113 1.0000000180025095e-35 -0.40240418308086456 -0.45321495192994654 -0.046541870356657862 0.88605514198405733 -1.042324513945305 0.0848426118182979 0.065644846415802399 -0.93732696037582841 1.2947641065098325 -0.36930258973248797 -0.31031028733874294 -0.05526090599337307 0.061036780463811148 -1.1297227843157589 -0.65151763533242801 -0.81002690724202775 -0.74297569876060188 0.53432890095088337 -0.69841904968939383 0.055736615197836251 -0.34345745710581993 -0.057447448787905038 -0.63357163507143843 -0.28415741782399029
decision_type=2 2 2 2 2 2 2 2 2 2 2 2 2 2 2 2 2 2 2 2 2 2 2 2 2 2 2 2 2 2
left_child=1 7 9 12 5 13 8 -1 -7 10 -2 18 -3 -5 19 -6 -15 26 -8 -12 -21 -22 -9 28 -10 -13 -18 -28 -24 -23
right_child=2 3 -4 4 15 6 11 22 24 -11 14 25 -14 16 -16 -17 17 -19 -20 20 21 29 23 -25 -26 -27 27 -29 -30 -31
leaf_value=-0.078066689139505624 0.07417060839505632 -0.018371643357295318 0.077918482027393432 -0.066254915013505319 -0.0046714155930888774 -0.057626560327426059 0.020392804852883036 -0.080778072279824642 0.029332529112123848 0.078573613334816328 -0.0023930132262470366 0.016520567340410408 0.044838527908628315 -0.047116017226726627 -0.017811331205135731 -0.066044622003922276 -0.05227706107790564 0.020102407464532998 -0.036028334806458409 0.083344361859718011 -0.018137431420481655 0.017093447737604708 -0.065231725541270158 -0.079458222626455563 -0.022357641283133084 0.060119238774070265 0.024725879180615983 -0.038955136980674612 -0.024193459163587352 0.042689703879662255
leaf_weight=563.00819945335388 8.2985390871763212 4.964598909020423 563.61080174148083 7.0952848345041266 4.9536882489919689 7.9449857771396664 6.4557467848062533 8.572495371103285 5.2244472950696954 9.1370799988508207 5.6952523589134207 7.9389085769653347 9.9449134767055494 10.328945264220236 5.2381711453199378 11.834054365754126 5.8614200949668858 9.8842801153659838 5.1979633271694183 7.0125012695789257 4.9274617731571118 15.744634926319113 5.5520552098751095 6.1676151156425467 6.2001440674066517 8.9064344018697721 4.9578834921121562 5.1118510514497792 16.785831511020664 34.377870917320273
leaf_count=2416 35 20 2418 29 20 32 26 36 21 39 23 32 40 42 21 48 24 40 21 29 20 64 23 26 25 36 20 21 69 140
internal_value=0 -0.0655795 0.0724881 -0.0118191 -0.0167598 -0.0108345 0.00351894 -0.0765692 -0.0230247 0.0385397 0.0338877 0.0217518 0.0234754 -0.0268114 0.0291445 -0.0483657 -0.0187691 -0.00709636 -0.00444002 0.0328691 0.0361841 0.0299457 -0.0535473 -0.0449296 0.000895749 0.0400858 -0.0243035 -0.00717499 -0.0348616 0.0347989
internal_weight=1376.93 722.892 654.042 122.806 107.896 91.1083 47.8686 600.086 19.3696 90.4315 81.2944 28.4991 14.9095 43.2397 72.9959 16.7877 36.1444 25.8154 11.6537 67.7577 62.0625 55.05 37.078 28.5055 11.4246 16.8453 15.9312 10.0697 22.3379 50.1225
internal_count=5856 3067 2789 497 437 369 193 2570 78 371 332 115 60 176 297 68 147 105 47 276 253 224 154 118 46 68 65 41 92 204
is_linear=0
shrinkage=0.05


Tree=7
num_leaves=31
num_cat=0
split_feature=0 0 3 0 5 5 3 29 5 3 5 3 3 5 5 5 3 29 5 9 0 28 12 19 18 26 25 22 24 26
split_gain=1425.7 344.25 115.812 110.171 88.8515 55.9317 42.3275 39.9363 28.505 23.3064 20.7922 25.6701 19.5551 14.9407 14.2114 12.0937 10.9772 10.8454 9.37006 9.12298 8.82527 8.01243 7.55532 10.4121 6.52951 5.76115 5.00758 4.77049 4.54124 4.48903
threshold=-0.092661354803904861 0.88605514198405733 1.0000000180025095e-35 -0.81446477118502669 0.29725792546121949 -0.7989683621743775 -1.0255542210681639 -0.10734579317522511 0.16273625449374129 1.1168506939867127 0.11594610807027049 -0.8704290119546011 -0.8704290119546011 1.6926069348754316 0.76933708134087764 0.91973398055917599 0.11063312135819925 0.69278163070555576 -0.33357351292664345 -0.74507825480729706 0.34164409064575335 -0.51281242707907637 0.80138850482957469 0.45718250435675123 0.20848289274017573 -1.1038391162513712 0.14193732159912412 -0.51505710452904718 0.83832213850019832 -0.043464090822765908
decision_type=2 2 2 2 2 2 2 2 2 2 2 2 2 2 2 2 2 2 2 2 2 2 2 2 2 2 2 2 2 2
left_child=3 2 5 -1 17 6 27 8 12 15 11 -7 21 -11 25 -6 -10 18 -4 -16 24 -5 23 -20 29 -9 -8 -2 -14 -13
right_child=1 -3 4 7 9 10 26 14 16 13 -12 20 28 -15 19 -17 -18 -19 22 -21 -22 -23 -24 -25 -26 -27 -28 -29 -30 -31
leaf_value=-0.077060615571904634 0.063316889901204612 0.07702463047386314 -0.054186677996828206 0.070049775778429593 0.014943327898395475 0.064857863771057497 -0.031348167099827989 -0.012299139853147442 0.072025980025588479 -0.043600480494200546 0.065940853203558442 -0.0056542143143274472 -0.058408329495671624 0.040566194684344629 -0.051318760681712983 0.057060053334541005 0.00042846141077090187 -0.066737560619770361 -0.022378127030490153 0.034316319457379167 0.03440221676726548 -0.0039360824366781611 -0.067878007056962439 0.053070486582093637 -0.037890996938041467 -0.061903378047031991 -0.0745558262518589 0.0097517004085906633 -0.0095798201130104788 0.040324066703993959
leaf_weight=387.17606870830059 13.769437819719316 375.6604019254446 26.711824625730515 5.5905774980783454 41.956476360559464 36.416953712701797 22.316670507192612 6.7471206635236731 14.969835296273233 20.299912944436077 88.387194439768791 15.868244886398314 21.123620763421062 6.9666792303323737 5.1219252645969391 29.2481659501791 8.5240970700979215 48.080800577998161 14.398925781250005 7.5892345458269101 23.95440973341465 9.9035536050796491 4.7454577237367621 6.5744932293891898 10.431785985827444 67.926938250660896 10.197633847594259 6.3328397125005713 6.5289028882980338 7.762207210063937
leaf_count=1697 59 1647 115 24 174 158 94 29 64 87 383 65 90 30 22 126 36 207 60 32 101 42 20 27 43 293 44 27 28 32
internal_value=0 0.0419778 0.0116492 -0.0628262 -0.0164111 0.0353828 -0.00995075 -0.0269858 0.00210103 0.0173001 0.0484557 0.0319847 -0.0219414 -0.0218433 -0.0492018 0.0323692 0.0463727 -0.049472 -0.0334468 0 0.0111881 0.0227168 -0.0115861 0.00117493 -0.00504392 -0.0575107 -0.04524 0.0468215 -0.0471359 0.00934446
internal_weight=1351.28 810.081 434.42 541.202 198.983 235.437 52.6166 154.026 66.6406 98.4712 182.821 94.4336 43.1467 27.2666 87.3852 71.2046 23.4939 100.512 52.4307 12.7112 58.0166 15.4941 25.7189 20.9734 34.0622 74.6741 32.5143 20.1023 27.6525 23.6305
internal_count=5856 3499 1852 2357 846 1006 224 660 284 417 782 399 184 117 376 300 100 429 222 54 241 66 107 87 140 322 138 86 118 97
is_linear=0
shrinkage=0.05


Tree=8
num_leaves=31
num_cat=0
split_feature=8 8 8 8 8 20 11 31 0 0 18 31 9 30 1 0 12 31 15 19 4 9 5 16 0 18 7 9 16 11
split_gain=2243.57 152.594 43.7009 7.53215 7.27451 7.58579 7.45333 6.86918 5.60364 5.48179 5.89972 4.93226 4.85402 4.52329 4.30674 8.91693 5.40569 4.05955 3.74281 6.31388 3.43637 3.76382 3.91266 3.28816 3.05132 3.01877 3.40333 3.45707 2.94124 2.82356
threshold=0.049247420246031244 -0.26521882628587307 0.45600267391229909 -0.69248274820422162 -0.17122076346383652 -0.61332109986191552 -0.89494515082132065 0.81784626796112592 0.88605514198405733 -0.53614226741094995 -0.84224795980847289 0.55430652629362542 0.27453748363004588 0.51540981299036936 0.81077103921098015 -0.81446477118502669 -0.74297569876060188 -0.55858072488047472 0.041027174416204536 0.051185444474688167 0.91921877278753572 -0.51185429401782756 -0.51739194530456301 -0.12529514461830557 -0.092661354803904861 -0.63357163507143843 0.11410225723188708 -0.50068582265607786 0.6537400188008563 -1.2527769591963571
decision_type=2 2 2 2 2 2 2 2 2 2 2 2 2 2 2 2 2 2 2 2 2 2 2 2 2 2 2 2 2 2
left_child=1 3 8 -1 6 13 -3 20 9 -2 -11 12 18 17 15 -5 -17 -6 19 -7 21 -8 -23 -13 -24 -18 -27 -28 -14 -12
right_child=2 4 -4 14 5 11 7 -9 -10 10 29 23 28 -15 -16 16 25 -19 -20 -21 -22 22 24 -25 -26 26 27 -29 -30 -31
leaf_value=-0.075162878988047452 0.078413217776842584 -0.0695019316180681 0.07384731939118104 -0.075430598423049694 -2.8738685483168175e-05 0.037732146073664277 -0.055007197754913556 0.031019130681756869 0.074240058143662843 -0.020505462869129767 0.066606398741401188 -0.0090976989770007594 -0.057745163625344209 -0.010038104064330252 -0.076007004974370129 -0.070937642272205018 -0.053883736226246252 0.053293581607582852 -0.029023703617542668 -0.024891669100853515 -0.065772926953616181 -0.041626509090776774 -0.015289419509895336 0.037758073760757127 0.037074147716034039 0.013077488937160332 -0.0028803444087311461 -0.047442871765021072 -0.011028939233296613 0.028592226818057398
leaf_weight=477.5593878030777 5.8377427011728278 8.5807878971099836 539.73069982230663 26.024902492761612 4.9714382737875029 8.4335722178220767 5.2803511619567898 5.9323963522911063 8.7389083355665189 5.6599613130092612 5.532821297645568 7.68381567299366 10.55468140542507 7.4190614670515052 29.385946199297905 9.5852642655372602 8.3113749921321851 11.069593444466591 11.578661337494848 7.4494951814413062 4.8818521201610556 5.1772237867116937 5.3642122894525528 6.9259075671434385 5.4232728034257889 6.1549328714609173 7.7159008383750924 10.734260484576225 5.4358145594596854 63.451735734939575
leaf_count=2141 25 36 2418 116 20 34 22 24 39 23 23 31 43 30 130 42 36 45 47 30 20 21 22 28 22 26 33 46 22 261
internal_value=0 -0.0617347 0.0684777 -0.0725088 -0.0109222 -0.00223081 -0.0281857 -0.01679 0.0358924 0.0315796 0.02775 -0.0119791 -0.0204627 0.0216317 -0.0594491 -0.0521754 -0.0376747 0.0365604 -0.00743377 0.00807545 -0.0279131 -0.0187118 -0.00612812 0.0128806 0.0106752 -0.0276516 -0.018406 -0.0291922 -0.0423424 0.0318055
internal_weight=1326.59 697.634 628.952 575.472 122.162 81.522 40.6401 32.0593 89.2212 80.4823 74.6445 58.0619 43.4522 23.4601 97.9126 68.5266 42.5017 16.041 27.4617 15.8831 26.1269 21.2451 15.9647 14.6097 10.7875 32.9165 24.6051 18.4502 15.9905 68.9846
internal_count=5856 3067 2789 2570 497 330 167 131 371 332 307 235 176 95 429 299 183 65 111 64 107 87 65 59 44 141 105 79 65 284
is_linear=0
shrinkage=0.05


Tree=9
num_leaves=31
num_cat=0
split_feature=8 8 8 8 21 31 8 6 17 28 1 3 16 14 31 1 0 12 10 25 10 27 27 28 18 7 18 29 24 18
split_gain=2072.71 144.838 42.5327 7.40364 7.2536 6.40999 6.53731 6.05952 6.2042 5.82198 5.36287 5.21114 4.85328 4.83637 4.5252 4.14742 8.5479 5.10245 3.66048 3.59582 3.59564 3.40058 5.36121 4.3805 4.15992 2.98484 3.2642 3.46355 2.93927 2.80484
threshold=0.049247420246031244 -0.26521882628587307 0.45600267391229909 -0.69248274820422162 -0.94379920326695177 0.95820443696803215 -0.19685659877893749 0.12467860645558078 0.85418016416713105 0.37530720492697567 0.53223758108391428 -1.042324513945305 -1.0000000180025095e-35 0.37339538792687221 1.2947641065098325 0.81077103921098015 -0.81446477118502669 -0.74297569876060188 0.099384448544222626 0.38203320136683266 -0.41467714052801885 1.0000000180025095e-35 0.54569238939623477 0.6910830740846825 0.065083279862694146 1.0000000180025095e-35 -0.32636056263351026 0.084726536693760027 -0.15622233343865832 -0.63357163507143843
decision_type=2 2 2 2 2 2 2 2 2 2 2 2 2 2 2 2 2 2 2 2 2 2 2 2 2 2 2 2 2 2
left_child=1 3 10 -1 12 6 -6 8 9 19 11 -2 -3 28 21 16 -5 -18 -7 20 -8 25 24 -24 -23 26 -13 -28 -9 -19
right_child=2 4 -4 15 5 18 7 13 -10 -11 -12 14 -14 -15 -16 -17 17 29 -20 -21 -22 22 23 -25 -26 -27 27 -29 -30 -31
leaf_value=-0.073328606355857154 0.068875241056248676 -0.017391301508246595 0.072004559000615961 -0.073547555735855016 -0.038447291019564532 -0.0063675803626465043 -0.0023792550989096381 -0.033955990277164963 0.0532534482764652 -0.032502545340756576 0.072389962541602473 -0.0038355272277384514 0.042342969711758827 -0.061499316588837519 -0.018127640470979391 -0.074069906585863141 -0.06894252468104535 -0.052007034583620632 0.046512409597452085 -0.020349982932857478 0.044579111309039604 -0.032176085990320222 0.044775157789741941 -0.0065665326365498058 0.022932940645789771 0.067493275781752404 0.064099917046325089 0.017380134122586984 0.01081454223023473 -0.017582376677859876
leaf_weight=465.34191377460957 7.9257610589265814 4.9468845427036294 526.21161982417107 25.375660344958305 30.833152994513512 6.8275551497936231 7.4333281666040376 7.6367111653089523 4.9350713938474646 13.095389559864996 8.5221846848726255 4.8428002446889939 9.8812608420848811 8.211352124810217 5.2370304465293875 28.667535021901131 9.3776792734861356 8.1875085532665235 5.9152870625257492 6.9324738830327979 8.4172669649124199 7.1576008796691877 18.180388957262043 5.1361357718706122 6.3155716806650162 8.5018715113401395 8.5489621609449404 8.201800733804701 6.6673523336648959 24.488680019974709
leaf_count=2141 35 20 2418 116 128 28 30 31 20 53 39 20 40 34 21 130 42 36 24 28 34 29 75 21 26 35 36 34 27 105
internal_value=0 -0.0599365 0.0665983 -0.0706566 -0.0104365 -0.0150122 -0.0195418 -0.0102123 0.00117098 -0.00598208 0.034377 0.0301824 0.0220968 -0.0309817 0.0257716 -0.0576029 -0.0504287 -0.0362185 0.0179613 0.00911843 0.0223671 0.0293054 0.0187784 0.0332724 -0.00599663 0.0419035 0.0313331 0.0417598 -0.0128104 -0.0264929
internal_weight=1297.95 683.172 614.782 561.439 121.733 106.905 94.1621 63.3289 40.8135 35.8785 88.5701 80.0479 14.8281 22.5154 72.1222 96.0971 67.4295 42.0539 12.7428 22.7831 15.8506 66.8851 36.7897 23.3165 13.4732 30.0954 21.5936 16.7508 14.3041 32.6762
internal_count=5856 3067 2789 2570 497 437 385 257 165 145 371 332 60 92 297 429 299 183 52 92 64 276 151 96 55 125 90 70 58 141
is_linear=0
shrinkage=0.05


Tree=10
num_leaves=31
num_cat=0
split_feature=8 8 8 8 21 9 11 31 8 0 0 6 9 29 18 16 7 15 28 7 22 11 9 5 21 3 0 0 12 6
split_gain=1917.68 138.054 41.4089 7.32337 6.56966 7.36493 6.87538 10.8407 5.20332 5.13448 5.11195 6.2268 4.50417 6.65006 4.41361 4.41009 4.19814 4.13917 3.96615 3.86198 4.86858 3.85241 3.77216 4.00831 3.76397 3.79697 3.56463 7.5544 4.2138 3.60991
threshold=0.049247420246031244 -0.26521882628587307 0.45600267391229909 -0.69248274820422162 -0.94379920326695177 0.50644750661225113 -0.58963911248298706 0.95820443696803215 1.0000000180025095e-35 0.88605514198405733 -0.53614226741094995 -0.21637974686660597 -0.3587805394714994 0.20031841810161113 -0.59534718518205409 0.12799543257894083 -0.36930258973248797 -0.26765867411950756 -0.1917501315403814 0.23632677819731149 0.45775324630448594 0.23435890496778319 -0.57820815328469022 0.171091637783647 -0.10383619128611812 -1.042324513945305 0.34164409064575335 -0.81446477118502669 -0.74297569876060188 -0.14074180560563757
decision_type=2 2 2 2 2 2 2 2 2 2 2 2 2 2 2 2 2 2 2 2 2 2 2 2 2 2 2 2 2 2
left_child=1 3 9 -1 15 6 -6 8 14 10 -2 18 17 21 -8 -3 -7 -10 -12 20 -16 -14 -13 24 25 -24 27 -5 -29 -30
right_child=2 4 -4 26 5 16 7 -9 12 -11 11 22 13 -15 19 -17 -18 -19 -20 -21 -22 -23 23 -25 -26 -27 -28 28 29 -31
leaf_value=-0.071666518257240477 0.074902760372987334 -0.010456171195534813 0.070326933319521404 -0.071840965390137942 -0.03237399159173629 -0.0049608633031757712 0.0085432555592314333 0.051457723671390065 0 0.070707819640383598 0.025698419149210242 0.072243802234312135 -0.015913262137813727 -0.049956409186539853 -0.048161592544438261 0.044087555069114694 -0.061240862394036102 0.062371932339565207 -0.02632019246226985 -0.064138259343378357 0.01307912566402737 0.035708175768670185 0.063505662959794873 0.011657851580109039 0.065144456044644847 0.01418588804720973 -0.072320966078936233 -0.067108383358376905 -0.015955888707304623 -0.050383652749298284
leaf_weight=452.65135885775089 5.6427309513092032 6.1829691529273978 512.18414513766766 24.699058815836906 22.621852546930313 4.9231972396373775 7.3408123701810863 8.6210495531558973 5.1966944634914398 8.2967745363712293 6.3158700168132773 5.5011716485023419 6.6913982927799278 6.3793511092662802 6.5242893695831317 8.6093918234109861 11.634121894836424 5.3815484791994077 8.3719939142465574 7.663468822836875 6.1102960854768753 7.4577257931232452 5.3280637115240088 22.455678895115852 10.126099124550828 15.745803669095041 25.785169765353203 9.160530671477316 22.479724347591397 12.094892814755442
leaf_count=2141 25 25 2418 116 94 20 30 35 21 39 26 23 27 26 27 35 48 22 34 32 25 30 24 93 42 65 120 42 97 54
internal_value=0 -0.05826 0.0648783 -0.0689651 -0.00995387 -0.014319 -0.00858637 -0.000488181 -0.00827082 0.0329869 0.028903 0.0252238 0.00562303 -0.00784769 -0.0240521 0.0210363 -0.0449368 0.0320617 -0.00359124 -0.0360694 -0.0182818 0.0110041 0.0324566 0.0281575 0.0397979 0.0271325 -0.0558718 -0.0495045 -0.036641 -0.0282542
internal_weight=1268.18 668.209 599.968 546.871 121.338 106.546 89.9885 67.3666 58.7456 87.7842 79.4874 73.8447 31.1067 20.5285 27.6389 14.7924 16.5573 10.5782 14.6879 20.2981 12.6346 14.1491 59.1568 53.6556 31.2 21.0739 94.2194 68.4342 43.7351 34.5746
internal_count=5856 3067 2789 2570 497 437 369 275 240 371 332 307 126 83 114 60 68 43 60 84 52 57 247 224 131 89 429 309 193 151
is_linear=0
shrinkage=0.05


Tree=11
num_leaves=31
num_cat=0
split_feature=8 8 8 8 18 17 7 8 0 30 9 17 24 16 3 0 0 7 23 6 24 8 6 13 24 22 7 10 24 27
split_gain=1777.97 128.047 42.4675 8.53492 7.22383 7.36461 7.21033 11.5918 5.61546 5.54072 7.41986 6.39955 4.80603 4.75245 6.12939 4.54397 4.45063 10.5064 6.32983 7.51692 3.39752 3.49126 3.3515 3.24159 3.22928 3.09028 2.75097 2.69519 2.50011 2.49259
threshold=1.0000000180025095e-35 0.24407976864079819 -0.45321495192994654 0.6952704701865744 -1.2461514949104722 -1.2857776729241044 0.12508873102653192 0.15008170581876146 0.53432890095088337 0.21523136572288179 -0.16366077509270369 0.37890558579226646 -0.53007088494085386 1.0000000180025095e-35 0.36134899987147057 -0.34345745710581993 -0.092661354803904861 -0.11936031090431655 -0.74134970637147546 0.12467860645558078 -0.31031028733874294 0.37225894521630276 -0.38140798234508361 0.16175919280407999 0.97758902884107113 0.16104608930025852 -0.21549195660745904 -0.082956633527787579 0.70237721068121772 0.041040855850447193
decision_type=2 2 2 2 2 2 2 2 2 2 2 2 2 2 2 2 2 2 2 2 2 2 2 2 2 2 2 2 2 2
left_child=2 4 -1 16 -2 27 7 9 12 10 -7 26 -4 24 15 -15 -3 18 -18 -20 -21 -22 -8 -11 29 -13 -12 -6 -16 -14
right_child=1 3 8 -5 5 6 22 -9 -10 23 11 25 13 14 28 -17 17 -19 19 20 21 -23 -24 -25 -26 -27 -28 -29 -30 -31
leaf_value=-0.068983336325354611 -0.043364344307476425 0.071555351300870956 -0.046463211145788837 0.070204847566974884 -0.00012339343506355817 0.050890404736355734 0 0.034674041075211895 -0.07137735055090498 -0.055680574700476416 -0.048445791402586758 0.049822494519738275 -0.055922266416862848 -0.011622080296988482 -0.010589459722989768 0.039807321839318406 0.067283517329709608 0.065711175463658414 -0.030844127688192981 -0.0057832400388301954 0.0063456532862706935 0.057471728174372176 0.043276424745092697 -0.0052594174346414207 -0.00339847150712041 -0.004495955888627317 -0.0038322915396023006 -0.050921659830576872 -0.060399706532884317 -0.019953255578605243
leaf_weight=497.11177308857441 5.9235091656446448 25.794633880257607 22.76946422457695 437.63858327269554 5.3515888303518295 6.5546854585409156 5.1858261972665778 25.362214103341103 7.9446829706430426 7.5908401608467084 8.314538508653639 4.9147734642028791 13.581092655658727 8.0935263484716433 6.0223609656095487 8.716791898012163 7.4474709779024115 35.312712028622627 6.5782763957977322 4.8367618024349257 5.2239671200513813 10.635378837585447 27.338834032416344 5.8867832571268082 7.3524301648139945 5.1312921494245529 6.334793418645865 5.4006607234477979 4.7154656946659088 8.501048415899275
leaf_count=2416 24 122 97 2129 22 27 21 106 37 31 34 20 58 34 25 36 34 167 29 22 22 50 113 24 31 21 26 22 20 36
internal_value=0 0.0567179 -0.0633143 0.0671898 0.00982844 0.0126876 0.0168467 0.00770538 -0.0310804 -0.00751852 0.00391321 -0.00850884 -0.0269191 -0.0189543 -0.00379549 0.0148281 0.0533097 0.0464259 0.0265365 0.0150224 0.0299198 0.0410897 0.0363088 -0.0342267 -0.0329114 0.0218143 -0.0296494 -0.0263333 -0.0332802 -0.0424529
internal_weight=1237.57 652.758 584.809 533.468 119.29 113.367 102.615 70.0899 87.6969 44.7277 31.2501 24.6954 79.7522 56.9827 27.5481 16.8103 95.8292 70.0346 34.7219 27.2744 20.6961 15.8593 32.5247 13.4776 29.4346 10.0461 14.6493 10.7522 10.7378 22.0821
internal_count=5856 3066 2790 2575 491 467 423 289 374 183 128 101 337 240 115 70 446 324 157 123 94 72 134 55 125 41 60 44 45 94
is_linear=0
shrinkage=0.05


Tree=12
num_leaves=31
num_cat=0
split_feature=8 8 8 8 18 17 7 8 20 1 20 30 17 20 1 7 23 6 29 16 25 17 24 8 14 29 11 13 7 7
split_gain=1648.7 122.796 41.6753 8.51027 6.53466 6.68313 6.53748 10.5404 8.72648 5.36547 4.74348 4.56919 4.96985 6.71189 4.32296 10.0125 5.93503 6.84315 3.96808 5.84016 3.23971 4.24876 3.15474 3.28844 2.99634 2.83821 2.79615 2.73134 2.69426 2.67884
threshold=1.0000000180025095e-35 0.24407976864079819 -0.45321495192994654 0.6952704701865744 -1.2461514949104722 -1.2857776729241044 0.12508873102653192 0.15008170581876146 -0.93732696037582841 0.88423041278295333 -1.0957106920482313 0.55259861720379744 0.12712529849742535 0.12145636837812565 -1.0746862158030035 -0.11936031090431655 -0.74134970637147546 0.12467860645558078 0.055816239064541119 -0.095716804189021551 0.46449037219614636 -0.59154853125677875 -0.31031028733874294 0.37225894521630276 -0.11688078489467536 -0.15878515006422475 -0.24822160724442119 0.43396796871854948 0.4333966518887537 0.12508873102653192
decision_type=2 2 2 2 2 2 2 2 2 2 2 2 2 2 2 2 2 2 2 2 2 2 2 2 2 2 2 2 2 2
left_child=2 4 -1 14 -2 -6 7 8 -7 10 -4 12 26 -14 -3 16 -16 -18 19 27 21 -8 -19 -24 29 -21 -10 -12 -23 -20
right_child=1 3 9 -5 5 6 20 -9 11 -11 18 -13 13 -15 15 -17 17 22 24 25 -22 28 23 -25 -26 -27 -28 -29 -30 -31
leaf_value=-0.067579857184229083 -0.041203422714859564 0.070032615938372955 -0.056629078257834066 0.068821425419538312 -0.025088420379737981 0.047907612155765361 0.065793615990189722 0.033155925243025651 -0.0075502391490733277 -0.069782631882663509 -0.05336943249996861 -0.053778117506629003 -0.016856129935375417 0.047528051145290351 0.065488313393518696 0.064093678545823998 -0.02910932178601441 -0.0054895130703514457 0.013485815294083268 -0.0024712193773067941 0.060430214985589571 -0.0058992255801123168 0.0060420358739354217 0.055890368525449721 -0.046656371569267857 0.039471925515291162 -0.050436600558906412 -0.0060013934067930366 0.031675901257185439 -0.029673699133134248
leaf_weight=482.43824945390224 5.9275743812322608 25.058554798364639 10.861283257603644 424.45044383406639 10.741807103157042 6.0626775026321402 4.8389881700277355 25.205911889672279 8.5342130064964277 7.7277154326438895 7.6457633227109891 6.5902612805366507 9.0177124291658419 7.1011269390583029 7.2761423587799063 34.41895204782486 6.6264736056327846 4.8458932638168379 4.9242771565914145 15.081989094614981 8.9944789856672269 9.1715891957283038 5.2173503339290592 10.398363977670668 18.265784114599231 5.3112660199403789 7.3260933905839947 5.4850700050592422 9.3929833918809873 11.665260344743727
leaf_count=2416 24 122 47 2129 44 25 20 106 35 37 33 27 37 29 34 167 29 22 21 63 37 38 22 50 78 22 30 23 39 50
internal_value=-7.39467e-07 0.0552411 -0.061827 0.0657543 0.0093567 0.0120877 0.0160633 0.00733963 -0.00716983 -0.0298161 -0.0257724 -0.0160582 -0.0079856 0.0113181 0.0517698 0.0449519 0.0255042 0.0143788 -0.0207226 -0.00820335 0.0346341 0.0242924 0.0287786 0.0396982 -0.0325628 0.00834787 -0.0278652 -0.0341555 0.0129124 -0.016559
internal_weight=1206.6 637.198 569.407 518.292 118.905 112.978 102.236 69.838 44.6321 86.9684 79.2407 38.5694 31.9791 16.1188 93.8417 68.7832 34.3642 27.0881 68.3794 33.5241 32.398 23.4036 20.4616 15.6157 34.8553 20.3933 15.8603 13.1308 18.5646 16.5895
internal_count=5856 3066 2790 2575 491 467 423 289 183 374 337 158 131 66 446 324 157 123 290 141 134 97 94 72 149 85 65 56 77 71
is_linear=0
shrinkage=0.05


Tree=13
num_leaves=31
num_cat=0
split_feature=8 8 8 8 21 11 31 0 3 29 31 1 0 12 17 12 3 14 8 19 2 20 27 27 15 6 19 19 20 7
split_gain=1530.98 121.131 38.6648 7.55277 5.63382 5.0965 9.55344 4.60454 4.57584 4.18632 4.06214 3.94942 8.1964 4.87122 3.92041 3.85959 3.26334 3.49405 3.04649 3.62351 5.45204 3.76348 3.01974 4.58211 5.33303 4.02514 5.94079 3.00794 2.82945 2.57337
threshold=0.049247420246031244 -0.26521882628587307 0.45600267391229909 -0.69248274820422162 -0.94379920326695177 -0.58963911248298706 0.95820443696803215 0.88605514198405733 -1.042324513945305 0.67342513685606253 1.2947641065098325 0.81077103921098015 -0.81446477118502669 -0.65953124885755809 -0.19519537441954701 0.40470642759818282 0.6388973469881688 0.59389949996793578 -0.17122076346383652 0.3439427191980941 0.048530265123639414 0.015896220243606828 1.0000000180025095e-35 0.54569238939623477 -0.40854606139990884 0.41966657737335961 0.042313309964993766 0.87991707597592261 -0.17594089781881891 1.0000000180025095e-35
decision_type=2 2 2 2 2 2 2 2 2 2 2 2 2 2 2 2 2 2 2 2 2 2 2 2 2 2 2 2 2 2
left_child=1 3 7 -1 14 27 9 8 -2 16 22 12 -5 -14 -3 -11 17 18 28 20 21 -20 29 24 -24 26 -25 -6 -7 -10
right_child=2 4 -4 11 5 6 -8 -9 10 15 -12 -13 13 -15 -16 -17 -18 -19 19 -21 -22 -23 23 25 -26 -27 -28 -29 -30 -31
leaf_value=-0.067556251710001181 0.06328111490878098 -0.0086074992552856444 0.066097155090272822 -0.067953851146897892 -0.041698492406960087 -0.048626958701767926 0.039973381868340208 0.066688470584996717 0.027070233485830902 -0.013446534120743332 -0.020058469765723421 -0.068018857212650927 -0.060272991163684758 -0.019372024832951421 0.042756341454531777 -0.070978108443984375 0.021486280574550983 -0.034580363350935693 -0.0075493072641152348 0.037255889671405966 -0.041643709769908194 0.046056216474378908 -0.044595429270540325 0.050700949381822485 0.018699352577923767 0.062562507154338073 -0.0096504831476064597 0.00016591673606593661 0.0013269090460473771 0.061215697207398091
leaf_weight=413.40897358953953 7.3432229310274115 6.3816500604152671 468.29744817316532 22.733542546629906 19.390256106853489 6.144767701625824 9.5577923804521543 7.6303446143865576 21.020731344819072 6.9054638445377332 5.2379175424575797 25.588980942964554 9.9204325675964338 29.877694964408875 8.2746604382991773 5.3950095176696777 8.2577304393053037 12.833484321832655 8.3449052274227267 6.4191476106643668 6.8425603508949271 5.1444243043661109 5.6733235567808151 6.777506008744246 7.6536052376031858 6.2909349650144568 9.706195116043089 5.1969568878412238 4.8353308886289508 8.1841428577899915
leaf_count=2141 35 26 2418 116 82 26 39 39 90 29 21 130 48 135 34 23 34 53 34 26 28 21 23 29 32 27 40 22 20 35
internal_value=-2.05226e-07 -0.0538726 0.0604415 -0.0646668 -0.00867294 -0.0127481 -0.00657838 0.0293718 0.0255711 -0.0129517 0.0214909 -0.0509932 -0.0438487 -0.0298182 0.0201459 -0.0394521 -0.00726779 -0.0120955 -0.00424432 0.00471296 -0.00544878 0.0127148 0.0249254 0.0149557 -0.00800454 0.028586 0.0150185 -0.0326823 -0.026364 0.0369857
internal_weight=1175.27 621.454 553.815 501.53 119.924 105.268 80.6806 85.5179 77.8876 71.1228 70.5444 88.1207 62.5317 39.7981 14.6563 12.3005 58.8224 50.5646 37.7311 26.751 20.3319 13.4893 65.3064 36.1016 13.3269 22.7746 16.4837 24.5872 10.9801 29.2049
internal_count=5856 3067 2789 2570 497 437 333 371 332 294 297 429 299 183 60 52 242 208 155 109 83 55 276 151 55 96 69 104 46 125
is_linear=0
shrinkage=0.05


Tree=14
num_leaves=31
num_cat=0
split_feature=1 6 1 1 6 1 6 6 6 7 7 10 6 6 3 18 31 17 23 1 17 31 30 6 7 6 5 3 1 21
split_gain=828.69 267.469 127.218 79.8462 72.1968 49.6947 37.7741 12.1363 10.3131 8.63742 8.46099 10.0728 8.38801 8.21132 6.24314 5.34057 4.58034 4.42333 4.24625 4.84996 4.03483 3.85007 3.57817 3.47639 3.89019 3.46924 3.30357 3.26608 3.15039 2.99354
threshold=-0.095227901510025276 0.21681937126439724 1.0984869190345425 -1.0746862158030035 -0.22325592334487634 0.53223758108391428 -0.45016974712778307 0.56406628341702747 0.12467860645558078 0.27203281802990714 -0.010868882182198072 -0.06612514902883293 -0.7458453356933884 -0.13111515853605968 -0.20129432615663997 -0.65840669753345138 0.28608883696758181 -0.50110318533533071 0.72169678613777444 0.33940672545748402 0.92402213012963952 0.32703046962671506 0.92713583346771089 0.9525702544392769 -0.21549195660745904 0.35090481259066036 0.26801408394654985 -0.13672869857964379 0.81077103921098015 0.88043764654164325
decision_type=2 2 2 2 2 2 2 2 2 2 2 2 2 2 2 2 2 2 2 2 2 2 2 2 2 2 2 2 2 2
left_child=3 5 7 -1 12 6 -2 10 21 13 11 -3 -5 27 -11 -14 20 -17 19 -16 -15 26 -12 24 -9 -13 -6 -8 -7 -29
right_child=1 2 -4 4 8 28 9 23 -10 14 22 25 15 16 18 17 -18 -19 -20 -21 -22 -23 -24 -25 -26 -27 -28 29 -30 -31
leaf_value=0.066686694858574133 -0.055209941436427226 -0.067263701921623037 -0.06691398790430296 -0.061473533146764237 0.010901334277698802 -0.050364607153326052 -0.021474551259277618 0.012946617310776343 0.054486022865232214 0.04884749733016127 0.044301095421611071 -0.014088691221065198 -0.054067542016149307 -0.028829624765836261 0.0093768269779443535 -0.030318573677173378 0.015671032967620374 0.020943203862614265 0.026386065605633443 -0.044754120239853978 0.021556737097456403 -0.013515077767942335 0 0.061148286020117987 0.049254954318363624 0.040659659695651273 0.063078870553071639 -0.062757008787583307 -0.06654430491029964 -0.018924350046938432
leaf_weight=316.35348653793335 101.15130054950714 4.9798811823129681 33.709772661328316 17.256617486476898 8.7257652282714862 38.912966012954712 17.883952006697655 10.150857508182524 69.073215559124947 7.4459071457386043 24.149536907672886 4.8516756296157819 6.3053026944398907 20.067957282066349 7.9314517378807112 7.1367803514003798 15.303103163838385 9.9476567357778514 7.9379218667745581 8.223487988114357 4.7543320208787909 7.6735015064477912 5.5681374967098227 49.126114845275879 32.735004305839539 6.5924154222011566 4.8630329668521872 15.621309727430345 273.40500789880753 5.8116188496351233
leaf_count=1686 518 21 177 88 39 195 84 48 354 32 116 21 29 88 34 32 66 43 35 38 21 35 26 254 164 29 21 73 1462 27
internal_value=-6.41349e-07 -0.0341175 0.0199861 0.0530896 0.0201852 -0.0518573 -0.0331085 0.0412591 0.045095 -0.012888 0.0200929 -0.00843277 -0.0350282 -0.0216879 0.00911815 -0.0151257 -0.00560364 -0.000231531 -0.00310471 -0.0179761 -0.0189305 0.0142408 0.0360013 0.0517858 0.0408274 0.0170952 0.0302638 -0.0379201 -0.0645612 -0.0512469
internal_weight=1143.65 696.314 171.863 447.335 130.982 524.45 212.132 138.154 90.3355 110.981 46.1416 16.424 40.6464 79.4423 31.5388 23.3897 40.1254 17.0844 24.0929 16.1549 24.8223 21.2623 29.7177 92.012 42.8859 11.4441 13.5888 39.3169 312.318 21.4329
internal_count=5856 3529 856 2327 641 2673 1016 679 449 498 213 71 192 359 139 104 175 75 107 72 109 95 142 466 212 50 60 184 1657 100
is_linear=0
shrinkage=0.05


Tree=15
num_leaves=31
num_cat=0
split_feature=8 8 8 8 18 17 1 18 18 23 24 1 1 23 11 4 20 30 23 1 9 23 31 24 8 22 9 24 4 15
split_gain=1330.96 108.261 39.5757 8.79842 5.52398 5.65012 4.73088 4.36757 6.12266 5.40882 4.30388 4.21147 8.78646 6.40266 4.08438 4.65748 4.02719 4.43948 3.99576 3.59759 3.77923 3.283 4.86678 4.00086 4.74895 3.81551 3.22179 3.45183 3.03032 2.90074
threshold=1.0000000180025095e-35 0.24407976864079819 -0.45321495192994654 0.6952704701865744 -1.2461514949104722 -1.2857776729241044 0.88423041278295333 0.64079301667807786 0.4305483585293271 0.16996630772434232 -0.53007088494085386 -1.0746862158030035 0.33940672545748402 -0.74134970637147546 -0.83092936858908895 0.9694719719543351 -0.89749643642626298 0.55259861720379744 1.0000000180025095e-35 -0.53904495017403098 0.84281558527199307 -0.77209289720844276 0.44195452964476761 0.54317854520899111 0.15008170581876146 0.0848426118182979 -0.47046525308899229 0.7417296897867125 -1.0000000180025095e-35 -0.80474943622376804
decision_type=2 2 2 2 2 2 2 2 2 2 2 2 2 2 2 2 2 2 2 2 2 2 2 2 2 2 2 2 2 2
left_child=2 4 -1 11 -2 -6 10 8 16 -9 29 -3 13 -13 -12 26 18 21 -7 -15 -21 25 23 24 -23 -18 27 -16 -19 -4
right_child=1 3 6 -5 5 7 -8 9 -10 -11 14 12 -14 19 15 -17 17 28 -20 20 -22 22 -24 -25 -26 -27 -28 -29 -30 -31
leaf_value=-0.06408563914025496 -0.038178321482157086 0.066358034594207319 -0.0045326025067458789 0.065412987431425595 -0.023246015837003253 0.060490319633504701 -0.065909853120999978 0.008678574936270814 -0.031827145157020231 0.060679042366178652 -0.046375630195847305 0.064197447243027797 0.065566089362899246 -0.011346037229154724 -0.00029824938283994518 -0.0435820471146105 0.014826387393270503 0.0042750321032144723 0.0029574864027040824 0.0364928636111716 -0.01010801778443012 0.0064374977556867462 0.05357302144055244 -0.018597961248553421 0.061065937246608075 -0.039973517100650217 0.0074864407440863494 -0.056098657640856545 -0.048536990560072539 -0.050911496985426422
leaf_weight=438.93647490441799 5.887919917702674 22.873305156826973 4.4980619102716473 385.48044592142105 10.698895364999769 8.1246927082538587 7.0719493031501761 10.166636586189272 7.9734390377998343 10.338973283767698 8.8513298034667951 8.9150805920362455 22.997686579823494 8.5040384083986229 6.8809963762760109 8.0515187829732877 7.8545858711004168 5.3853131979703903 5.0830879509448996 18.942294776439674 5.3910396099090567 13.087828263640416 9.2776177674531919 7.7082412242889395 5.7985653430223456 5.1301153302192688 27.086301058530811 4.7584852129220963 5.0507597923278791 17.470784157514572
leaf_count=2416 24 122 20 2129 44 34 37 43 33 44 40 44 125 38 30 35 33 23 21 91 26 54 39 32 25 21 114 21 21 77
internal_value=-6.95663e-07 0.0514409 -0.0580393 0.0621115 0.00844217 0.0109768 -0.0265967 0.0146716 0.00931409 0.0353072 -0.0228693 0.0474721 0.0406314 0.0266538 -0.0152792 -0.00920206 0.0139452 0.00824318 0.0389128 0.0161453 0.0259647 0.0146279 0.0224414 0.0112337 0.0237063 -0.00658237 -0.00183146 -0.0238202 -0.021028 -0.0417057
internal_weight=1114.28 590.671 523.606 473.104 117.567 111.679 84.6694 100.98 80.4742 20.5056 77.5975 87.6234 64.7501 41.7525 55.6286 46.7773 72.5008 59.293 13.2078 32.8374 24.3333 48.857 35.8723 26.5946 18.8864 12.9847 38.7258 11.6395 10.4361 21.9688
internal_count=5856 3066 2790 2575 491 467 374 423 336 87 337 446 324 199 240 200 303 248 55 155 117 204 150 111 79 54 165 51 44 97
is_linear=0
shrinkage=0.05


Tree=16
num_leaves=31
num_cat=0
split_feature=8 8 8 8 7 18 11 8 20 15 0 0 0 23 20 31 17 28 9 27 24 21 29 16 28 7 11 9 15 7
split_gain=1238.46 104.473 39.1391 8.86194 5.32162 5.1923 5.21059 5.18324 8.62349 5.19194 4.55243 4.33615 9.57514 6.78413 4.13664 3.53806 4.77101 4.37764 3.76873 3.66695 3.62959 3.40577 3.3239 5.17923 3.12619 2.78452 4.5597 3.11519 2.7792 2.71405
threshold=1.0000000180025095e-35 0.24407976864079819 -0.45321495192994654 0.6952704701865744 0.4333966518887537 -0.69621228149297554 0.62830218024305229 0.15008170581876146 0.95168129872163121 0.60774273224074327 0.53432890095088337 1.100149375656424 -0.092661354803904861 -0.74134970637147546 -1.0957106920482313 -0.013472455524817897 0.37890558579226646 -0.30805151192212615 -0.094679040211311571 -0.11598946534319264 0.16115285519136746 -0.27898266368153374 0.055816239064541119 -0.095716804189021551 0.58359240433791904 -0.26836436174418771 0.39803295624286622 0.078760750347617828 -0.29366517417929233 -0.13995994926927599
decision_type=2 2 2 2 2 2 2 2 2 2 2 2 2 2 2 2 2 2 2 2 2 2 2 2 2 2 2 2 2 2
left_child=2 4 -1 11 5 6 21 15 9 -9 14 12 -3 -14 -4 17 18 -7 -17 -19 -21 -2 23 -16 -6 -25 27 -27 -24 -15
right_child=1 3 10 -5 24 7 -8 8 -10 -11 -12 -13 13 29 22 16 -18 19 -20 20 -22 -23 28 25 -26 26 -28 -29 -30 -31
leaf_value=-0.063055345130615267 -0.027783919280311428 0.065267717631940211 -0.051439823440474264 0.064421582878768299 0.051520580688197315 -0.034758283872403171 -0.063095330597106147 0.050820787109577353 -0.032132924740284362 -7.0167636906391133e-05 -0.064758507235195314 0.064609942904418516 0.062745098648629677 0.0032724088811691755 -0.03057191602624475 0.024666836355239065 0.049647930620010626 -0.028715920454693757 -0.022207816818996334 -0.0029749099998681037 0.051153321800969001 0.027192858873581739 -0.012528339731635758 0.043429876867807166 0.0055409013206875668 -0.0060888593174594861 -0.03899930897406978 0.047513852929451983 -0.041886816660161953 0.037034773885594625
leaf_weight=424.17911486327648 6.021075353026391 22.113575384020805 10.351070567965506 372.18077635765076 10.134733840823175 12.307982057332994 5.1498204618692389 18.635259509086616 5.2546450346708289 6.5745689123868933 6.8453253060579291 24.027871072292328 8.6738178879022581 22.622917890548706 12.747255399823187 7.9920247197151228 6.5973335504531851 5.7662453502416655 9.0206713825464249 7.2698162645101512 5.0859726220369339 5.0930636972188958 16.012328878045079 4.6486772149801263 6.23718537390232 5.64427702128887 5.0326988995075235 4.8467885106801987 17.795396924018863 8.1912178844213503
leaf_count=2416 25 122 47 2129 43 51 21 81 22 28 37 135 44 106 56 33 28 24 37 30 21 21 70 20 26 24 21 20 79 39
internal_value=0 0.0502542 -0.056874 0.0610351 0.00806135 0.00369494 -0.0220052 0.00872052 0.0251799 0.0374033 -0.0255338 0.0461996 0.0388445 0.0237935 -0.0219061 -0.000495316 0.0138997 -0.0118369 0 0.00356165 0.0191361 -0.00212707 -0.0171798 -0.00565231 0.0344473 0.00992123 -6.83722e-06 0.0184179 -0.0282072 0.0124998
internal_weight=1083.05 574.951 508.103 457.81 117.14 100.768 16.264 84.5045 30.4645 25.2098 83.9238 85.6294 61.6015 39.488 77.0785 54.04 23.61 30.43 17.0127 18.122 12.3558 11.1141 66.7274 32.9197 16.3719 20.1724 15.5238 10.4911 33.8077 30.8141
internal_count=5856 3066 2790 2575 491 422 67 355 131 109 374 446 311 189 337 224 98 126 70 75 51 46 290 141 69 85 65 44 149 145
is_linear=0
shrinkage=0.05


Tree=17
num_leaves=31
num_cat=0
split_feature=8 8 8 8 7 18 11 8 14 30 0 0 0 23 0 29 14 15 27 31 17 27 9 11 19 7 21 25 15 17
split_gain=1153.13 100.914 38.7562 8.93638 4.84858 4.70805 4.74729 4.71811 4.57034 4.95411 4.38654 4.29061 9.30195 6.41893 4.09485 4.21994 3.79775 3.34211 5.67572 3.2085 4.35772 3.58427 3.41029 3.15883 3.13191 3.09615 3.08233 2.98963 2.77396 3.87058
threshold=1.0000000180025095e-35 0.24407976864079819 -0.45321495192994654 0.6952704701865744 0.4333966518887537 -0.69621228149297554 0.62830218024305229 0.15008170581876146 0.41244924973251013 0.25671771035879287 0.53432890095088337 1.100149375656424 -0.092661354803904861 -0.74134970637147546 -0.81446477118502669 -0.84545422926674685 0.13546724523406234 -0.40854606139990884 0.19765684901982958 -0.013472455524817897 0.37890558579226646 -0.39980416195966556 -0.094679040211311571 -0.83092936858908895 -1.1282317863970224 0.11410225723188708 -0.27898266368153374 0.97378466261249808 -0.64757971847115281 -0.2982122742142464
decision_type=2 2 2 2 2 2 2 2 2 2 2 2 2 2 2 2 2 2 2 2 2 2 2 2 2 2 2 2 2 2
left_child=2 4 -1 11 5 6 26 19 17 -10 14 12 -3 -14 -4 -16 -6 18 -9 21 22 -7 -21 -17 -25 -23 -2 28 29 -26
right_child=1 3 10 -5 16 7 -8 8 9 -11 -12 -13 13 -15 15 23 -18 -19 -20 20 -22 25 -24 24 27 -27 -28 -29 -30 -31
leaf_value=-0.062096229390385151 -0.026420835111410218 0.064261023646825385 -0.066895211722742209 0.063505784365257986 0.016349400960669291 -0.03749280822527875 -0.060328975449271141 0.04930431081413171 -0.03265053926546161 0.03584031833414688 -0.063691728100316328 0.06365320487947683 0.061383623719976715 0.011944771155114723 0.02476993394070022 -0.045954820212031885 0.069872738730164405 0.063692370215679056 -0.019919154971855577 0.023499474404716988 0.04759897496880023 -0.011084530500213496 -0.02112076709471504 0.018987201360324821 -0.041487728618061839 0.032548365068968084 0.025900462777467343 0.011746016815507417 -0.033662919471383626 0.011843785742285555
leaf_weight=409.56654350459576 6.0202950984239587 21.357730746269226 4.5550419837236396 359.00585871934891 11.417618453502657 9.0322664827108401 5.1219375431537619 7.0178566575050372 5.8988970518112165 4.6001723557710648 6.6193861216306678 23.192256972193718 8.4312813431024534 30.679648295044899 5.1807622313499442 11.022115454077719 4.8574481308460227 7.8528120070695904 4.8707963526248932 7.9749907404184386 6.5429511964321128 15.987410247325899 9.015964075922966 5.4459955394268027 5.102765440940856 5.340603530406951 5.0850335657596597 6.1378034800291053 29.553949102759368 9.5488568097352893
leaf_count=2416 25 122 23 2129 48 38 21 31 25 20 37 135 44 145 22 51 21 35 20 33 28 66 37 23 22 22 21 26 129 41
internal_value=0 0.049126 -0.0557687 0.0600274 0.00769327 0.00351768 -0.0209737 0.00832003 0.0240948 -0.00211448 -0.0245106 0.0449835 0.0376471 0.0228594 -0.0209785 -0.0179152 0.0329584 0.038226 0.0205967 -0.000466965 0.0132614 -0.0112813 0 -0.021332 -0.0163043 0 -0.00199981 -0.0202512 -0.0248233 -0.00654653
internal_weight=1052.04 559.304 492.733 442.667 116.637 100.362 16.2273 84.1347 30.2405 10.4991 83.1667 83.6609 60.4687 39.1109 76.5473 71.9922 16.2751 19.7415 11.8887 53.8942 23.5339 30.3603 16.991 66.8115 55.7894 21.328 11.1053 50.3434 44.2056 14.6516
internal_count=5856 3066 2790 2575 491 422 67 355 131 45 374 446 311 189 337 314 69 86 51 224 98 126 70 292 241 88 46 218 192 63
is_linear=0
shrinkage=0.05


Tree=18
num_leaves=31
num_cat=0
split_feature=8 8 8 8 7 25 1 6 30 17 28 20 6 8 6 1 22 20 7 14 10 28 27 30 15 16 29 27 22 10
split_gain=1074.31 97.9242 38.4168 8.31221 5.18596 5.10301 4.23132 4.13416 4.07976 4.56228 8.47367 4.16861 5.6208 4.01258 3.88376 3.86542 4.05381 3.82852 3.57714 4.36267 4.90931 7.52595 3.40706 3.27453 3.25377 2.99809 4.40488 2.64711 3.16288 2.6335
threshold=1.0000000180025095e-35 0.37225894521630276 -0.45321495192994654 0.15008170581876146 0.12508873102653192 0.46449037219614636 0.88423041278295333 -0.34358901171459949 0.60021650227745615 0.37890558579226646 0.58359240433791904 -0.54903358136270153 -0.30577004108411454 0.6952704701865744 0.87693231317830811 -0.71045015517530219 -0.88796773901523518 -1.0957106920482313 0.41966355964544777 0.95980414365460576 0.68497984673702095 -0.1917501315403814 1.0000000180025095e-35 -0.21683168950501261 -0.33361718876388996 0.056896323190239483 0.23368670841635228 0.54569238939623477 -0.30103882734566972 -0.41467714052801885
decision_type=2 2 2 2 2 2 2 2 2 2 2 2 2 2 2 2 2 2 2 2 2 2 2 2 2 2 2 2 2 2
left_child=2 3 -1 4 8 7 17 -6 9 11 23 -2 -13 -3 15 -5 -17 -4 19 20 21 24 -23 -11 -18 -19 27 28 -27 -9
right_child=1 13 6 14 5 -7 -8 29 -10 10 -12 12 -14 -15 -16 16 18 25 -20 -21 -22 22 -24 -25 -26 26 -28 -29 -30 -31
leaf_value=-0.061200923764163043 0.019159354526327995 0.047745691769722334 -0.048915557466356285 0.064549494029508978 -0.034700775756280215 0.051402831843179633 -0.062700558615482155 -0.010189889880244206 -0.041893477623260317 0.016713140785206901 -0.030380278830140134 0.019791411261106007 -0.040986044587624039 0.062658132817168713 0.065894414622545958 0.049056165588984776 0.0067185392402858094 -0.026130580373146469 0.050036152115518734 -0.029580893278160183 0.047263278521715218 0 -0.053641345585103507 0.074366941165393607 0.064827568097479402 0.050118791118201535 -0.027004965718857799 -0.01390221691779321 0 0.032125031740397623
leaf_weight=395.14738215506077 6.5417737066745749 57.633549943566322 10.064852744340895 4.7896055728197089 4.9095890372991606 8.1793091595172864 6.3950942307710639 5.3932465016841915 7.6057885438203803 5.4398657083511344 5.5391040444374076 4.8478503674268749 15.419164746999742 346.0003706663847 5.5461229234933844 8.404821962118147 5.6218263506889343 33.227591246366501 5.0484971404075614 7.0710455924272528 7.9149121195077887 6.643455654382711 5.4862266033887863 5.009932428598403 4.4628489762544614 5.9584535509347907 13.120539560914038 6.9789548665285102 6.6575992256402996 10.317020595073696
leaf_count=2416 27 325 47 26 20 34 37 22 32 23 23 20 64 2129 30 40 24 149 26 29 35 29 23 21 20 25 58 30 28 44
internal_value=0 0.0480487 -0.0547165 0.0119922 0.00123554 0.018181 -0.0235247 0.00457701 -0.00836444 -0.00220551 0.018726 -0.0148982 -0.0261768 0.0605536 0.0258544 0.0216477 0.0173734 -0.0200848 0.0108515 0.00527977 0.0136974 0.00135572 -0.0248566 0.0452709 0.0333089 -0.0155413 -0.00458712 0.0102306 0.0239779 0.0173097
internal_weight=1021.38 543.826 477.55 140.192 79.2026 28.7992 82.4031 20.6199 50.4035 42.7977 15.9889 26.8088 20.267 403.634 60.9894 55.4432 50.6536 76.008 42.2488 37.2003 30.1293 22.2144 12.1297 10.4498 10.0847 65.9431 32.7155 19.595 12.6161 15.7103
internal_count=5856 3066 2790 612 330 120 374 86 210 178 67 111 84 2454 282 252 226 337 186 160 131 96 52 44 44 290 141 83 53 66
is_linear=0
shrinkage=0.05


Tree=19
num_leaves=31
num_cat=0
split_feature=8 8 8 8 7 6 8 0 24 9 7 14 28 5 5 30 9 9 5 22 19 13 22 26 13 30 9 16 5 5
split_gain=1001.39 94.9625 38.1098 7.65426 4.69612 4.64713 4.14079 4.08404 4.11085 4.06659 3.97948 4.13672 4.13144 4.29578 4.14078 3.72772 6.02165 4.05297 3.62558 3.52477 2.98632 3.60445 2.75702 3.44186 2.7232 2.88166 2.56923 2.51839 2.87183 2.63528
threshold=1.0000000180025095e-35 0.37225894521630276 -0.45321495192994654 0.15008170581876146 0.12508873102653192 -0.42404027651035719 0.6952704701865744 0.53432890095088337 -0.53007088494085386 0.62798675378422775 0.41966355964544777 0.97873024591426094 0.49619015483891099 0.013174893604433444 -0.2165981468679665 0.55259861720379744 -0.23527038558862542 0.020290517924342322 -0.43049595908954624 -0.19449293177818758 0.26423815467179751 0.050189751442551299 -0.5315022318883752 -0.54658497375886095 0.51041369705885609 -0.41139823815979842 -0.028982149848080545 -0.095716804189021551 0.19699332598235386 0.39000267997916976
decision_type=2 2 2 2 2 2 2 2 2 2 2 2 2 2 2 2 2 2 2 2 2 2 2 2 2 2 2 2 2 2
left_child=2 3 -1 4 15 -6 -3 8 24 10 11 12 13 14 -5 16 -2 -18 19 26 21 -19 -7 -24 25 -4 -10 29 -29 -20
right_child=1 6 7 9 5 22 -8 -9 18 -11 -12 -13 -14 -15 -16 -17 17 20 27 -21 -22 -23 23 -25 -26 -27 -28 28 -30 -31
leaf_value=-0.060362950061519677 0.034224243212469099 0.046551283390639304 -0.019028195518159936 0.033200183921653657 -0.023705772727528832 -0.0011158122027372893 0.061872074237657143 -0.061777183291131757 -0.040335946180959224 0.049163268046206854 0.053284761282844262 -0.028540440370049464 -0.013719235361333277 0.044380337582347107 -0.026331475195253952 -0.03695709126833701 -0.048409358208053033 -0.037810782955094206 -0.055642884691457312 0.031380057961978215 0.016742865009883885 0.010800669227806259 0.0032803554884679332 0.052372078326501592 -0.0053271362508788599 -0.06466274361228698 0.0096400828906905087 0.010439636658314291 -0.02643834431898098 -0.013304214553933222
leaf_weight=380.96242758631706 9.0502245426177961 56.19608011841774 5.9778409451246306 5.8094920217990875 5.3853833526372936 6.0581904798746171 333.20187857747078 6.1732677072286597 4.5669580847024926 13.551955461502073 6.6953271925449362 5.3937951028347006 7.7351684719324103 15.43949308991432 5.6369553953409213 8.9977909922599775 6.0152468383312216 8.8996803313493746 8.196099251508711 7.8993490338325492 10.899562582373617 6.3357623219490042 5.4427565336227497 11.794153600931157 5.2111568450927725 10.033150032162666 5.4067761301994333 9.6873975098133105 11.077528804540632 7.4264297485351554
leaf_count=2416 38 325 28 27 22 25 2129 37 21 69 36 22 33 71 24 38 25 37 38 34 46 26 23 50 23 46 23 42 49 33
internal_value=0 0.0470169 -0.0537109 0.011507 0.00118365 0.017345 0.0596864 -0.0225789 -0.0192294 0.0249122 0.0176795 0.0114794 0.0179225 0.0272283 0.00347585 -0.00796675 -0.00144032 -0.0117098 -0.0117591 0.00644629 -0.00292015 -0.0173307 0.0271096 0.0372675 -0.0379503 -0.0481589 -0.0129208 -0.0208316 -0.00902656 -0.0360471
internal_weight=991.157 528.539 462.618 139.141 78.8788 28.6805 389.398 81.656 75.4827 60.2622 46.7102 40.0149 34.6211 26.8859 11.4464 50.1983 41.2005 32.1503 54.2605 17.8731 26.135 15.2354 23.2951 17.2369 21.2221 16.011 9.97373 36.3875 20.7649 15.6225
internal_count=5856 3066 2790 612 330 120 2454 374 337 282 213 177 155 122 51 210 172 134 240 78 109 63 98 73 97 74 44 162 91 71
is_linear=0
shrinkage=0.05


Tree=20
num_leaves=31
num_cat=0
split_feature=8 8 8 8 8 7 25 0 9 24 7 20 4 30 11 4 6 11 15 7 16 0 6 9 30 17 28 13 24 8
split_gain=933.667 92.3231 37.793 7.02892 4.27632 4.25598 4.55513 3.94044 3.81331 3.80187 3.74069 3.48514 3.95598 5.35927 3.45731 3.98339 3.44352 3.32465 4.46795 3.26434 3.62438 2.95153 7.00819 5.02069 3.99105 2.93357 7.28068 3.64141 2.74223 2.66044
threshold=1.0000000180025095e-35 0.37225894521630276 -0.45321495192994654 0.15008170581876146 0.6952704701865744 0.12508873102653192 0.46449037219614636 0.53432890095088337 0.62798675378422775 -0.53007088494085386 0.41966355964544777 -0.93732696037582841 0.78521024167607167 0.60021650227745615 -0.83092936858908895 0.9694719719543351 -0.34358901171459949 -0.93269804803520129 0.7977032544165662 -0.38715560964878576 0.41169754289361921 -0.34345745710581993 0.071044429925075384 -0.39688473588217316 0.098395944067533839 0.37890558579226646 0.49619015483891099 -0.11651875411037997 0.76293914281110209 -0.69248274820422162
decision_type=2 2 2 2 2 2 2 2 2 2 2 2 2 2 2 2 2 2 2 2 2 2 2 2 2 2 2 2 2 2
left_child=2 3 29 5 -3 11 16 9 10 -4 17 -2 13 25 -11 21 -7 -5 19 -19 28 23 -23 -16 -25 27 -27 -13 -21 -1
right_child=1 4 7 8 -6 6 -8 -9 -10 14 -12 12 -14 -15 15 -17 -18 18 -20 20 -22 22 -24 24 -26 26 -28 -29 -30 -31
leaf_value=-0.06121364057329165 0.02272779976964534 0.045392131948538528 -0.036564309635862324 0.047814532800282611 0.061141859235912678 -0.032180496560428512 0.048170988894839249 -0.060914742837775142 0.047715941905184855 -0.040799216366568275 0.051942024752609263 -0.041893265045176896 0.028093081582011105 -0.067667592661755843 -0.060663822583030769 -0.038202223283455947 0.015382883710225895 0.039021797044327643 -0.031569102090073811 0.031439804223204755 -0.035130226646798456 0.035131201911777217 -0.02240795783843634 -0.022506341140099542 0.036384382860064839 0.042026427968671759 -0.036207619026824407 0 -0.012861259542468834 -0.047129307741993844
leaf_weight=323.68157462775707 7.7818671911954871 54.788198858499527 20.959817379713058 5.2364844828844062 320.64160779118538 4.8949422240257308 8.0696528851985914 5.9545975625514975 13.275004327297209 8.3123148977756482 6.5317548364400855 11.220122277736662 4.9032722860574713 4.8490666300058356 4.3241224586963645 7.7137217223644248 15.59817036986351 8.7905993312597221 6.5392050743103018 9.1273214817047208 4.7417194992303839 13.580263838171964 8.4404955655336362 6.8224093168973869 4.8086622059345245 6.7941843271255475 5.0916360914707184 9.408742621541025 5.3560258746147147 43.364009395241737
leaf_count=2141 33 325 97 24 2129 20 34 37 69 40 36 47 20 21 20 35 66 42 27 41 20 58 37 30 20 29 21 39 23 275
internal_value=0 0.0460072 -0.0527498 0.0110151 0.0588694 0.00112424 0.016547 -0.021686 0.023954 -0.0184263 0.0169486 -0.00759325 -0.0133342 -0.0189647 -0.0112394 -0.00567499 0.00367809 0.0109632 0.0051126 0.0139342 0.00206173 0.000883639 0.012849 -0.0152962 0.00151738 -0.0113629 0.00807297 -0.0227874 0.0147383 -0.0595766
internal_weight=961.602 513.64 447.962 138.21 375.43 78.6117 28.5628 80.9164 59.5981 74.9618 46.3231 50.0489 42.267 37.3638 54.002 45.6897 20.4931 39.7914 34.5549 28.0157 19.2251 37.976 22.0208 15.9552 11.6311 32.5147 11.8858 20.6289 14.4833 367.046
internal_count=5856 3066 2790 612 2454 330 120 374 282 337 213 210 177 157 240 200 86 177 153 126 84 165 95 70 50 136 50 86 64 2416
is_linear=0
shrinkage=0.05


Tree=21
num_leaves=31
num_cat=0
split_feature=8 8 8 8 3 21 28 18 20 9 15 20 31 0 0 12 12 8 9 17 8 6 24 9 3 8 28 24 18 3
split_gain=870.96 90.0374 37.4771 7.68304 4.02007 7.6997 4.48416 6.00739 3.83259 4.59675 4.11841 3.37421 3.48026 3.21109 3.32192 3.2 4.74389 4.06393 3.76814 4.71927 2.97447 2.90241 3.37591 3.07666 4.36452 2.71467 2.67752 2.50827 2.48293 2.4528
threshold=1.0000000180025095e-35 0.45600267391229909 -0.45321495192994654 0.15008170581876146 -0.50986771509605022 -1.1127785463526705 0.6294080996398187 0.15257950592557754 1.2407550180013389 -0.63339354118980407 -0.92777148868049131 0.44602096603803948 0.015721970330865608 0.88605514198405733 -0.092661354803904861 0.88611671550035809 0.58021486398766131 -0.26521882628587307 -0.31476362292813503 0.52068477669615743 0.6952704701865744 -0.21637974686660597 0.11387877314905293 -0.51185429401782756 0.6388973469881688 -0.69248274820422162 0.079267327591624928 0.40902236644026035 -0.20835093157319351 -0.18871660649878355
decision_type=2 2 2 2 2 2 2 2 2 2 2 2 2 2 2 2 2 2 2 2 2 2 2 2 2 2 2 2 2 2
left_child=2 3 25 4 5 -2 11 -8 9 27 -11 12 28 14 -5 16 17 -12 -19 29 -3 22 -16 -23 -25 -1 -7 -4 -6 -20
right_child=1 20 8 13 6 26 7 -9 -10 10 15 -13 -14 -15 21 -17 -18 18 19 -21 -22 23 -24 24 -26 -27 -28 -29 -30 -31
leaf_value=-0.06052935891375049 0.025511797364775952 0.046000608892118947 -0.060640587406903083 0.062267585909486195 0.031539620537188631 -0.054151574107331291 -0.046916873095614223 0.023712315769102779 0.015088079947531557 0.021824602407807397 -0.046190189887152233 -0.0055529714623038743 0.042671197390568308 0.059634808423156674 0.026278842971086614 -0.05375453680326836 0.024582367159449135 0.025358393792192926 -0.017291663250307225 0.020740509846424789 0.060462392900415829 0.061170161945042739 -0.02865902329998048 0.024266276725285654 -0.025411918685151393 -0.046120249683489184 -0.012320479097427131 -0.020093261005435598 -0.0084466468753605379 -0.06058810063402939
leaf_weight=311.28874534368515 7.443176522850993 45.859544709324837 11.367394626140596 4.4373028874397269 6.5576091706752733 8.7574882209301013 7.217669874429701 4.9301889091730118 6.5774496346712104 5.9414743781089774 12.542897254228587 12.153802186250685 14.747276827692984 5.9133176207542411 4.6871872693300229 6.7317445874214163 5.9079454839229575 5.3888351023197165 8.4409505724906904 4.7704761028289786 308.34521986544132 4.7034222036600104 6.5265937596559525 35.354951083660126 4.8728260546922675 42.130842342972755 7.519657850265502 6.5829376876354209 8.941262245178228 5.9093061387539008
leaf_count=2141 31 289 58 26 27 37 31 21 29 27 64 51 63 39 21 31 27 23 37 20 2129 22 27 162 21 275 31 32 38 26
internal_value=0 0.0450386 -0.0518308 0.0117616 0.00107169 -0.0159983 0.00860183 -0.0178843 -0.020834 -0.024129 -0.0168345 0.0163322 0.0252803 0.0242484 0.0206194 -0.0215918 -0.0163227 -0.0230282 -0.0108322 -0.0213709 0.0586176 0.0171341 -0.0052246 0.0228245 0.0180766 -0.0588393 -0.0353251 -0.0462413 0.00824483 -0.0357627
internal_weight=932.549 498.968 433.581 144.764 78.2681 23.7203 54.5478 12.1479 80.1614 73.584 55.6336 42.4 30.2461 66.4956 60.5823 49.6922 42.9604 37.0525 24.5096 19.1207 354.205 56.145 11.2138 44.9312 40.2278 353.42 16.2771 17.9503 15.4989 14.3503
internal_count=5856 3066 2790 648 330 99 231 52 374 345 255 179 128 318 279 228 197 170 106 83 2418 253 48 205 183 2416 68 90 65 63
is_linear=0
shrinkage=0.05


Tree=22
num_leaves=31
num_cat=0
split_feature=8 8 8 8 20 13 2 31 13 5 27 23 14 16 29 12 0 3 14 10 8 8 12 13 6 31 10 14 31 30
split_gain=812.617 97.9958 27.4526 8.02485 3.983 3.86936 3.75062 3.74056 4.31195 4.90396 3.95803 3.71505 3.51292 3.27254 4.64374 6.80687 3.12227 3.20935 3.44582 3.12991 3.06338 2.7755 2.71539 4.70918 3.59049 2.66928 2.62282 4.4598 3.56077 4.73059
threshold=-0.17122076346383652 0.45600267391229909 -0.45321495192994654 0.15008170581876146 1.2407550180013389 1.0052448305048929 -1.144070831898069 -0.94432340246680335 -0.81757257025822416 0.33903484191074656 1.1290662475509714 -0.12264299077750764 -1.0000000180025095e-35 0.14549247903006632 0.23368670841635228 0.47017822675287851 0.88605514198405733 -1.042324513945305 0.97873024591426094 0.68497984673702095 0.6952704701865744 -0.69248274820422162 0.89932111196853193 0.51041369705885609 1.0000000180025095e-35 -0.347366761023085 0.099384448544222626 -0.30193600698908318 -0.25369482555636635 0.28089916433271284
decision_type=2 2 2 2 2 2 2 2 2 2 2 2 2 2 2 2 2 2 2 2 2 2 2 2 2 2 2 2 2 2
left_child=2 3 21 5 6 7 -4 12 9 -9 -10 -7 -2 22 15 -15 17 -5 19 26 -3 -1 23 24 25 -8 28 -28 -19 -30
right_child=1 20 4 16 -6 11 13 8 10 -11 -12 -13 -14 14 -16 -17 -18 18 -20 -21 -22 -23 -24 -25 -26 -27 27 -29 29 -31
leaf_value=-0.059891744394196471 0.0057272532585760103 0.044972705091241662 -0.065480211902560648 0.054819027225657957 0.019464680851019878 -0.055079439667880842 0.0077533919665240709 0.06140210540029694 0.0079395463641035117 0 -0.038433958652843055 0 -0.041638589774761384 -0.013019529218750056 -0.031609360810787426 0.059954457949153245 0.058911455646443171 0.049174889984511916 -0.014785167049782 0.045428284569643408 0.059829172820194225 -0.045134796187317659 -0.069687640273750004 0.014197198239752965 -0.067782484193851522 -0.039386497723687658 -0.037237828104067644 0.021594056111321987 0.028308845074481444 -0.031076434083920624
leaf_weight=299.18029753863811 7.6737402826547623 44.596927881240845 5.6416446417570105 5.9158019870519629 4.9202189296483985 5.6229548156261444 4.5912846028804823 7.548012048006056 44.50080794095993 5.6655967235565186 5.0131095498800269 6.9291419982910138 7.526856601238249 10.19988924264908 12.849452897906302 4.4995509684085837 5.6934306025505057 8.6231232732534355 7.6583000123500815 10.243888348340986 296.33346781134605 40.931041046977043 4.6196548938751212 5.2384796589612952 6.7846875488758078 7.6826092451810881 5.6574592441320419 7.1522528082132322 9.9318524599075371 4.8881034702062598
leaf_count=2141 32 289 30 34 22 24 21 32 189 24 21 29 32 45 63 20 39 41 32 48 2129 275 23 24 36 37 25 33 45 21
internal_value=0 0.042887 -0.0523702 0.010049 -0.0229539 0.000327643 -0.0264206 0.00454066 0.00998525 0.0352839 0.00307561 -0.0252623 -0.0175189 -0.0223208 -0.00968068 0.00923439 0.0233271 0.0197791 0.0157653 0.0209253 0.0579142 -0.0581443 -0.0341158 -0.0268896 -0.0384589 -0.0214287 0.0137581 -0.00408915 0.0236985 0.00830952
internal_weight=904.314 497.175 407.139 156.244 67.0275 90.4802 62.1073 77.9281 62.7275 13.2136 49.5139 12.5521 15.2006 56.4656 27.5489 14.6994 65.7642 60.0708 54.155 46.4967 340.93 340.111 28.9167 24.2971 19.0586 12.2739 36.2528 12.8097 23.4431 14.82
internal_count=5856 3119 2737 701 321 383 299 330 266 56 210 53 64 269 128 65 318 279 245 213 2418 2416 141 118 94 58 165 58 107 66
is_linear=0
shrinkage=0.05


Tree=23
num_leaves=31
num_cat=0
split_feature=8 8 8 8 20 28 0 18 7 15 31 11 23 23 7 12 13 7 8 9 8 10 2 2 2 29 12 13 15 29
split_gain=758.661 88.2309 34.5131 6.6284 4.81309 3.97736 4.61135 4.516 4.2411 4.16792 3.93586 3.76171 3.69203 5.34212 3.56434 4.68546 4.0662 3.28875 3.15735 2.94863 2.84228 2.80912 2.97324 3.90389 2.75611 4.66077 3.07001 2.7133 2.67986 3.89533
threshold=0.049247420246031244 -0.45321495192994654 0.45600267391229909 -0.19685659877893749 -0.61332109986191552 -0.82118729930339984 -0.092661354803904861 -0.010311470510991136 0.24456663354329525 -0.80474943622376804 1.354365470355807 0.089913037366851731 0.42304864657866276 0.88419650913317349 0.042690177566695027 -0.65953124885755809 -0.53684112868419309 -0.61375163166333635 0.6952704701865744 -0.29176971130100354 -0.69248274820422162 0.5727699500773239 0.0611192985193647 -0.54315430447544888 -0.51377989321875606 -0.79860870614379975 -0.91078157054364572 0.16175919280407999 -0.33361718876388996 0.084726536693760027
decision_type=2 2 2 2 2 2 2 2 2 2 2 2 2 2 2 2 2 2 2 2 2 2 2 2 2 2 2 2 2 2
left_child=1 20 10 5 -5 7 9 -3 11 -7 14 -8 24 27 16 -16 -2 -18 -4 -19 -1 22 23 -10 -6 -26 -27 -14 -21 -30
right_child=2 3 18 4 12 6 8 -9 21 -11 -12 -13 13 -15 15 -17 17 19 -20 28 -22 -23 -24 -25 25 26 -28 -29 29 -31
leaf_value=-0.059296738100115591 0.040156469895686386 0.027761897548026195 0.043968179821670075 0.018795334762535788 0.0058026586817844965 -0.010180513862352046 -0.021578401305266188 -0.0357152679558735 0 -0.058540165913191326 -0.024134331462642201 0.035764481668253426 0.056034161286795718 -0.018338903989539287 -0.0008908412482252706 0.052614089394938481 0.033361208879472741 0.032555665987391895 0.059238175026414167 -0.027001640834504143 -0.044170303932084737 -0.065018553445595692 0.012504783910837048 -0.060507214805809895 0.012513322011859958 0 -0.046466853919711823 0.0035881208870872545 0.026084876607792323 -0.029928814865250702
leaf_weight=287.37319923937321 12.450952932238577 7.3978415876626968 43.368748351931572 22.466495797038078 8.8503705114126188 6.5414555966854122 5.1375157535076195 4.3499822318553907 4.6642400026321411 16.374098688364025 4.5690876841545096 6.0775342583656311 5.7616157829761523 9.3328379392623884 5.1613354831934002 16.724719971418381 9.0097098946571297 5.2440975159406653 284.62286154925823 10.754208758473396 39.765559256076813 4.2635861635208121 4.9748681783676139 5.8246573060750979 5.9852599203586605 4.7202397584915188 16.937808513641357 4.6549190282821655 8.728228643536573 4.6417885720729837
leaf_count=2141 62 34 289 95 37 30 24 22 23 79 20 26 24 40 24 89 45 24 2129 47 275 24 25 31 25 20 72 20 40 20
internal_value=0 -0.0431208 0.0501577 -0.0105023 -0.000648804 -0.0222288 -0.0279808 0.0037325 -0.0150689 -0.0450569 0.0199656 0.00909577 -0.00852415 0.00869166 0.0228347 0.0398221 0.0153582 0.00709956 0.0572484 -0.000873265 -0.0574874 -0.0290354 -0.018439 -0.0335673 -0.0179758 -0.0257625 -0.0365788 0.0333296 -0.00845081 0.00618909
internal_weight=876.73 471.454 405.276 144.315 78.7095 65.6058 53.858 11.7478 30.9424 22.9156 77.2841 11.2151 56.2431 19.7494 72.715 21.8861 50.829 38.378 327.992 29.3683 327.139 19.7274 15.4638 10.4889 36.4937 27.6433 21.658 10.4165 24.1242 13.37
internal_count=5856 3067 2789 651 333 318 262 56 153 109 371 50 238 84 351 113 238 176 2418 131 2416 103 79 54 154 117 92 44 107 60
is_linear=0
shrinkage=0.05


Tree=24
num_leaves=31
num_cat=0
split_feature=8 8 8 8 15 30 11 8 24 6 13 11 9 19 11 30 14 0 11 9 27 26 13 14 8 30 25 18 6 26
split_gain=708.211 93.0063 27.3252 6.89956 3.48674 4.82513 3.45675 3.25593 3.21706 5.85575 4.19141 3.09796 5.18013 6.5578 4.24047 3.64007 3.08083 3.01262 3.20948 3.49176 2.93055 5.41323 3.76654 4.77065 2.91447 2.62939 2.98252 2.60601 2.76985 4.75849
threshold=-0.17122076346383652 0.45600267391229909 -0.45321495192994654 0.15008170581876146 -0.83754024064697552 -0.43193336870387827 1.209368511274074 0.6952704701865744 0.061493979534595906 0.024286429872840357 0.51041369705885609 0.84004669070350924 0.28767686170269247 0.26423815467179751 -0.24822160724442119 -0.18449700590334714 0.62574341805560951 0.88605514198405733 -1.2527769591963571 0.62798675378422775 -0.086572175620900901 -0.44150276403170202 0.70101149271813301 0.1564962477447904 -0.69248274820422162 -0.83323767875227561 -0.40343198105505224 0.75021232829571882 1.0000000180025095e-35 -0.18516585848514686
decision_type=2 2 2 2 2 2 2 2 2 2 2 2 2 2 2 2 2 2 2 2 2 2 2 2 2 2 2 2 2 2
left_child=2 3 24 6 5 -4 11 -3 10 -10 16 12 15 14 -14 25 -6 18 -5 20 22 -22 23 -20 -1 -2 -27 28 -17 -30
right_child=1 7 4 17 8 -7 -8 -9 9 -11 -12 -13 13 -15 -16 27 -18 -19 19 -21 21 -23 -24 -25 -26 26 -28 -29 29 -31
leaf_value=-0.058740710921128918 0 0.042984551563659025 0.042814256925107291 0.058759040469393745 -0.064773461681097988 -0.019794656604375599 -0.031905181004431883 0.05868581295615493 0.00087431181945706905 -0.051964138544244136 -0.005012024738316849 0.033073779580423505 -0.012622391692468175 0.01082716084344691 -0.074576417491108271 0.0039232105519565056 -0.020730785586420105 0.057810244749615984 0.055849017148057269 0.039072971124115514 -0.04415261544196003 0.010030149592582922 -0.015355261193552279 -0.0056189190700729943 -0.043224453905088396 0.011470215987558317 0.062945628829890632 0.029733374746610565 0.0097974208261891755 -0.05650134476419675
leaf_weight=275.88060458004475 6.6049089729785946 42.175938248634338 4.5465679764747611 4.5036144107580176 13.393062189221387 8.985491216182707 7.5433666110038748 273.2261236011982 18.24632786214352 7.1574488282203665 6.9553830921649924 7.7710846662521353 5.4828207790851593 8.7189795225858671 6.0879354327917117 19.569575890898708 6.3530606925487509 5.3380267918109885 9.478971451520918 11.576764643192289 6.0220991224050513 18.380158796906478 4.5947083532810202 4.4738062024116507 38.635049864649773 5.5106436163187036 6.4518439918756458 5.6207775026559821 4.6030703037977219 6.0283366143703443
leaf_count=2141 28 289 21 23 71 43 32 2129 83 37 34 33 23 38 26 82 32 39 47 60 26 82 21 20 275 23 28 24 20 26
internal_value=0 0.041053 -0.0507313 0.0092045 -0.0212227 0.00103397 0.000203979 0.0566164 -0.0270896 -0.0139621 -0.0392937 0.00323731 2.559e-05 -0.0214058 -0.0460075 0.00813688 -0.0510311 0.0216908 0.0182477 0.0147087 0.00794987 -0.00326288 0.0229086 0.0358845 -0.0568649 0.0260501 0.0399391 -0.0010555 -0.00702992 -0.0275063
internal_weight=849.917 469.764 380.153 154.361 65.6373 13.5321 89.9933 315.402 52.1053 25.4038 26.7015 82.45 74.6789 20.2897 11.5708 54.3892 19.7461 64.3681 59.0301 54.5265 42.9497 24.4023 18.5475 13.9528 314.516 18.5674 11.9625 35.8218 30.201 10.6314
internal_count=5856 3119 2737 701 321 64 383 2418 257 120 137 351 318 87 49 231 103 318 279 256 196 108 88 67 2416 79 51 152 128 46
is_linear=0
shrinkage=0.05


Tree=25
num_leaves=31
num_cat=0
split_feature=8 8 8 8 28 0 0 10 10 18 15 8 28 7 17 20 21 21 30 8 0 0 14 6 26 25 4 26 10 13
split_gain=661.318 90.5914 27.3022 6.33168 3.58547 4.49935 4.18235 4.8251 4.6483 4.04651 3.79734 3.35868 3.14871 5.43512 4.68177 5.10184 4.27994 3.83564 3.26804 2.99157 2.92602 3.16816 2.74026 2.58317 4.21493 2.26902 2.21329 3.64224 3.44971 4.34036
threshold=-0.17122076346383652 0.45600267391229909 -0.45321495192994654 0.15008170581876146 -0.82118729930339984 -0.092661354803904861 0.53432890095088337 -0.25302475815264136 0.5727699500773239 -0.010311470510991136 -0.80474943622376804 0.6952704701865744 0.49619015483891099 0.46772938249701929 0.36668324174882777 -1.0350170603510587 -0.033002306071875515 -0.44796200676725245 0.18771235606214454 -0.69248274820422162 0.88605514198405733 -0.092661354803904861 0.352065971094562 -0.21637974686660597 -0.0593856377511238 0.14193732159912412 -0.63384438241497365 -0.65962795695019871 0.37552599110519824 0.37611714727183049
decision_type=2 2 2 2 2 2 2 2 2 2 2 2 2 2 2 2 2 2 2 2 2 2 2 2 2 2 2 2 2 2
left_child=2 3 19 12 9 10 7 -7 25 -4 -6 -3 13 14 15 -2 17 -17 -16 -1 21 -5 -18 24 -23 -9 27 -25 -28 -30
right_child=1 11 4 20 5 6 -8 8 -10 -11 -12 -13 -14 -15 18 16 22 -19 -20 -21 -22 23 -24 26 -26 -27 28 -29 29 -31
leaf_value=-0.058220406590184348 0.036921580439615 0.042019648141817315 0.026857019286599157 0.060095982743465753 -0.0097782926402853413 -0.031839316017366774 -0.057674803925896856 0.006286393944207911 -0.020426167734724512 -0.033672228998981334 -0.056284354726169883 0.058168866718916003 -0.014228829906141575 0.047444355607017111 0.039971986792318157 -0.013088396518021307 -0.012429806581374705 -0.058269575706241153 -0.009626826067974173 -0.042295205513865661 0.05718997076880207 -0.036230104979362625 0.03154609649174743 0 0.024961328876893566 0.056368448669130378 -0.0042438677290193814 0.05454914518123917 0.053099617999455839 -0.0018225813659959161
leaf_weight=264.71233739703894 5.4088848680257788 41.019132316112518 7.4206991940736771 4.040562540292739 6.5127782970666912 10.4671648144722 4.4501602053642264 4.4990562349557965 6.5188270658254615 4.2335254698991758 15.822419941425318 262.15269578248262 26.368364408612251 7.0293934047222129 10.590401992201803 14.523992180824274 7.8897349238395709 7.2140079736709621 4.5597925782203665 37.539914980530739 5.13242083787918 5.8489702939987183 6.160016193985939 4.543498530983924 5.1759367883205396 5.0899578928947449 15.613482728600507 9.0963086634874291 8.1542969048023206 6.062217876315116
leaf_count=2141 23 289 34 26 30 51 32 21 30 22 79 2129 113 30 46 61 33 31 20 275 39 25 26 22 23 22 70 45 40 28
internal_value=0 0.0401729 -0.0499415 0.00881729 -0.0203856 -0.0258783 -0.0132567 -0.00544282 0.0114922 0.00434432 -0.0430504 0.0560149 0.000201119 0.00629658 0.000999769 -0.00765253 -0.0146128 -0.0285094 0.024751 -0.0562737 0.0208647 0.0175023 0.00658444 0.0141483 -0.00708657 0.033694 0.0196525 0.0364543 0.0117067 0.0294813
internal_weight=823.851 456.584 367.267 153.412 65.0146 53.3604 31.0252 26.575 16.1078 11.6542 22.3352 303.172 89.7446 63.3762 56.3468 41.1966 35.7878 21.738 15.1502 302.252 63.6677 58.5353 14.0498 54.4947 11.0249 9.58901 43.4698 13.6398 29.83 14.2165
internal_count=5856 3119 2737 701 321 265 156 124 73 56 109 2418 383 270 240 174 151 92 66 2416 318 279 59 253 48 43 205 67 138 68
is_linear=0
shrinkage=0.05


Tree=26
num_leaves=31
num_cat=0
split_feature=8 8 8 8 20 16 8 9 31 8 28 19 17 7 28 31 12 24 0 0 29 27 28 27 17 4 7 29 17 1
split_gain=617.676 88.7243 26.7424 5.85978 3.55183 3.70247 3.46521 3.20286 3.80979 3.0731 2.96805 5.66525 4.86555 4.20389 4.30423 4.22159 4.07005 3.68611 2.83945 3.03711 2.74237 2.50264 3.88388 4.71376 3.99871 3.46339 2.63952 4.63549 4.87248 2.27686
threshold=-0.19685659877893749 0.45600267391229909 -0.45321495192994654 0.15008170581876146 1.2407550180013389 0.14549247903006632 0.6952704701865744 -0.41987864750930404 -0.071227341251849527 -0.69248274820422162 0.3629722100380029 0.56926871396539303 0.85418016416713105 0.46772938249701929 -0.38822897870044942 0.47520651407218523 0.47017822675287851 -0.41916844382537022 0.88605514198405733 -0.092661354803904861 -0.11147503177433439 1.0000000180025095e-35 0.67134708226232631 0.54569238939623477 0.064965948790794467 0.052351087160248826 1.0000000180025095e-35 0.084726536693760027 -0.33976824396193767 -0.34621409454760088
decision_type=2 2 2 2 2 2 2 2 2 2 2 2 2 2 2 2 2 2 2 2 2 2 2 2 2 2 2 2 2 2
left_child=2 3 9 10 5 -4 29 -7 -9 -1 13 12 -12 14 15 16 20 -16 19 -5 -2 26 23 24 -23 -25 27 28 -21 -3
right_child=1 6 4 18 -6 7 -8 8 -10 -11 11 -13 -14 -15 17 -17 -18 -19 -20 21 -22 22 -24 25 -26 -27 -28 -29 -30 -31
leaf_value=-0.057732906702057413 -0.032893614189818558 0.031972738986585071 -0.035375510985534077 0.059287466844570362 0.020379101654285317 -0.03503759278188022 0.057684448713525883 -0.024829949222164943 0.019574746602379494 -0.041380779953903164 -0.036596352742899289 0.028311243813473538 0.012196332986208445 0.042959267889080457 -0.0066835263145329062 0.016248954542647187 -0.064070538092529078 0.030717665624672805 0.056602140901146361 -0.0023032182734939476 0.015475200684594684 0.017370583512974099 -0.0361757480754605 0.055299207511922646 -0.047293223658699104 0.004027261246294221 0.051249505786115923 -0.010798691210338359 0.066322780630817799 0.058467995043923006
leaf_weight=253.87527356296778 6.1517042368650472 26.571986839175224 30.388751178979874 3.8959144800901404 4.8795997351407996 8.6933745667338389 251.4091698974371 8.1102595329284703 11.60015174746513 36.480330467224121 18.214457243680961 6.6514406055212012 6.8433545529842368 7.0086899250745764 10.696862727403643 7.948170378804206 5.1861239969730368 16.188162460923195 4.932539351284503 4.2407907247543344 5.2771433442831057 4.5253356248140388 5.0406077206134787 6.8895868510007841 4.7167612016201019 6.6894820779561996 6.9041103273630133 9.1286999434232694 6.0029765665531203 13.326721429824827
leaf_count=2141 26 188 158 26 22 46 2129 39 53 275 78 29 29 30 46 34 23 69 39 20 22 20 22 34 20 30 34 41 32 101
internal_value=0 0.0392451 -0.049266 0.00838638 -0.019758 -0.0232031 0.0554411 -0.0099261 0.00101801 -0.0557106 0.000152891 -0.0120851 -0.0230767 0.00688592 0.00180092 -0.0131913 -0.0275869 0.0156818 0.0200782 0.0167959 -0.0101856 0.0135422 0.00287682 0.0118409 -0.0152488 0.0306206 0.0246077 0.0146417 0.0376815 0.0410716
internal_weight=798.469 444.441 354.028 153.133 63.6721 58.7925 291.308 28.4038 19.7104 290.356 90.1661 31.7093 25.0578 58.4569 51.4482 24.5631 16.615 26.885 62.9668 58.0343 11.4288 54.1384 27.8618 22.8212 9.2421 13.5791 26.2766 19.3725 10.2438 39.8987
internal_count=5856 3122 2734 704 318 296 2418 138 92 2416 386 136 107 250 220 105 71 115 318 279 48 253 126 104 40 64 127 93 52 289
is_linear=0
shrinkage=0.05


Tree=27
num_leaves=31
num_cat=0
split_feature=8 8 8 8 8 1 15 18 17 16 11 20 25 14 27 22 19 10 8 24 16 27 11 1 11 11 14 21 16 16
split_gain=576.981 85.8626 27.2052 5.35479 3.56803 3.47855 4.03222 4.40825 3.82593 4.16239 3.26377 3.25398 4.07014 3.17278 3.45402 4.73416 3.18309 3.77617 3.15866 2.76832 3.22635 3.42753 3.55575 2.74962 2.93008 3.30299 4.04191 2.86346 2.63302 2.98225
threshold=-0.17122076346383652 0.45600267391229909 -0.45321495192994654 0.15008170581876146 0.6952704701865744 -0.095227901510025276 -0.83754024064697552 -0.17781668317420452 0.67224184283479893 -1.0000000180025095e-35 1.209368511274074 -0.91278611903310736 -1.0000000180025095e-35 -1.0589800973752961 0.452882911962527 -0.21348589577065188 -0.19210752091394875 -0.2281281873312716 -0.69248274820422162 -0.53007088494085386 -0.081135932146416831 -0.11598946534319264 0.12055306988826282 0.53223758108391428 -1.2527769591963571 -0.39266747484535258 0.95980414365460576 -0.24973285038411036 -0.071137619888630835 0.61874592589860533
decision_type=2 2 2 2 2 2 2 2 2 2 2 2 2 2 2 2 2 2 2 2 2 2 2 2 2 2 2 2 2 2
left_child=2 3 18 10 -3 -4 7 -7 19 -10 11 12 -2 -13 15 16 -15 -18 -1 -8 -21 -22 -23 24 -5 27 -27 -26 -16 -30
right_child=1 4 5 23 -6 6 8 -9 9 -11 -12 13 -14 14 28 -17 17 -19 -20 20 21 22 -24 -25 25 26 -28 -29 29 -31
leaf_value=-0.057275570956514026 0.00062877908690022735 0.040154148035723987 -0.062916946768648022 0.056012343887646449 0.057229943409001408 0.037296933993844081 -0.052228547489226611 -0.023043673068313286 -0.02795125954135343 0.038609310179198011 -0.031141485234584182 -0.041357512200001091 0.055478051792541505 -0.032921189139670189 -0.041839204232684557 0.026011555162756491 0.031767374227210973 -0.019934350831571426 -0.04047962579456009 -0.041555921937250065 -0.034579465652038642 0.037987022852618506 -0.018969267459036362 0.056043752827475563 0.017463787524621563 0.028276767426373202 -0.016824466814278027 -0.024123467678797108 0.016360667861303035 -0.030596870268660783
leaf_weight=243.37379068136215 7.9018598198890686 38.814839571714401 4.1585756242275229 4.2457386851310721 240.99966238439083 6.6338893622159958 9.7899751812219566 5.315509080886839 4.355639211833477 4.8047811910510045 7.4779475629329673 4.5204734802246085 6.074023172259329 7.5565412938594845 6.3624907582998302 21.715170159935955 7.3197324872016916 6.5494562834501204 35.456283196806908 11.28525479137897 6.7721356227993956 5.5815152525901919 5.084987998008728 4.7385121136903754 7.233064234256747 31.055112421512604 5.6942428052425376 9.2409555763006193 8.0732746720314008 5.6308588385581961
leaf_count=2141 33 289 24 23 2129 30 53 26 22 24 32 19 27 32 27 94 31 29 275 61 32 25 24 39 37 152 25 42 35 24
internal_value=0 0.0384845 -0.0484254 0.00810479 0.0548943 -0.0188092 -0.0155489 0.0100719 -0.022083 0.00646077 0.000190404 0.00315374 0.0250467 -0.00132049 0.00152471 0.00956356 -0.00691775 0.00702638 -0.055173 -0.0290007 -0.0207568 -0.00685152 0.0104461 0.0193522 0.0161479 0.012775 0.021126 -0.00556734 -0.0154717 -0.00265327
internal_weight=773.816 431.204 342.612 151.389 279.815 63.7823 59.6237 11.9494 47.6743 9.16042 89.1818 81.7039 13.9759 67.728 63.2075 43.1409 21.4257 13.8692 278.83 38.5139 28.7239 17.4386 10.6665 62.2076 57.4691 53.2234 36.7494 16.474 20.0666 13.7041
internal_count=5856 3119 2737 701 2418 321 297 56 241 46 383 351 60 291 272 186 92 60 2416 195 142 81 49 318 279 256 177 79 86 59
is_linear=0
shrinkage=0.05


Tree=28
num_leaves=31
num_cat=0
split_feature=8 8 8 8 8 28 18 0 1 10 10 13 8 13 17 23 28 19 3 31 26 4 28 31 17 15 4 20 0 1
split_gain=538.908 84.1672 26.6317 4.94384 3.68122 3.4454 6.25417 5.34549 3.68289 5.09733 4.50936 3.53689 3.24784 2.97513 3.17486 3.15215 3.13426 4.922 4.53957 4.46073 3.51534 2.91827 2.85058 2.73962 3.13866 2.63129 2.60297 2.48997 2.46778 7.7153
threshold=-0.19685659877893749 0.45600267391229909 -0.45321495192994654 0.15008170581876146 0.6952704701865744 -0.5547514097015841 0.30581626196337969 -0.092661354803904861 1.0984869190345425 -0.25302475815264136 0.5727699500773239 -0.5223784233225135 -0.69248274820422162 1.0052448305048929 1.1475164212096636 -0.12264299077750764 0.40032962313032 0.580111339156127 -0.50986771509605022 -0.90633809687740541 0.86884054817211565 -0.55068730284134182 -0.37501291274797827 1.2947641065098325 -0.92644075804700243 -0.80474943622376804 -0.090032977145682105 -0.35686070988425428 1.0000000180025095e-35 -0.34621409454760088
decision_type=2 2 2 2 2 2 2 2 2 2 2 2 2 2 2 2 2 2 2 2 2 2 2 2 2 2 2 2 2 2
left_child=2 3 12 13 28 6 11 25 9 -9 -11 -4 -1 14 16 -15 18 26 19 -2 21 -20 -21 24 -5 -7 -18 -23 -3 -30
right_child=1 4 5 23 -6 7 -8 8 -10 10 -12 -13 -14 15 -16 -17 17 -19 20 22 -22 27 -24 -25 -26 -27 -28 -29 29 -31
leaf_value=-0.05684601781842194 -0.049769999431591251 0.057876956586047669 -0.018915218280402341 -0.005973179020134195 0.056802992728140655 -0.015496197811103824 -0.05380601044486974 -0.031639991577695099 -0.056340931165892165 0.035875010702454344 -0.021458004530604296 0.037783121207028911 -0.03959040269713171 -0.050516745773294139 0.037721750171145374 0 -0.006283747937627886 0.029394904563494768 -0.0048334443602242438 -0.019914860706905867 -0.017520627486350113 0.057603245684977135 0.034104766014783815 -0.01817885112609674 0.026475323615882004 -0.058226104652290167 -0.045662595490847308 0.021058542952121506 0.0019658063951451857 0.057545826403434391
